<?xml version="1.0"?>
<opencv_storage>
<cascade>
  <stageType>BOOST</stageType>
  <featureType>HAAR</featureType>
  <height>24</height>
  <width>24</width>
  <stageParams>
    <boostType>GAB</boostType>
    <minHitRate>9.9500000476837158e-01</minHitRate>
    <maxFalseAlarm>5.0000000000000000e-01</maxFalseAlarm>
    <weightTrimRate>9.4999998807907104e-01</weightTrimRate>
    <maxDepth>1</maxDepth>
    <maxWeakCount>100</maxWeakCount></stageParams>
  <featureParams>
    <maxCatCount>0</maxCatCount>
    <featSize>1</featSize>
    <mode>BASIC</mode></featureParams>
  <stageNum>20</stageNum>
  <stages>
    <!-- stage 0 -->
    <_>
      <maxWeakCount>10</maxWeakCount>
      <stageThreshold>-1.7219274044036865e+00</stageThreshold>
      <weakClassifiers>
        <_>
          <internalNodes>
            0 -1 212 -3.1193587929010391e-02</internalNodes>
          <leafValues>
            5.7033807039260864e-01 -6.9663172960281372e-01</leafValues></_>
        <_>
          <internalNodes>
            0 -1 238 -4.1825547814369202e-02</internalNodes>
          <leafValues>
            7.5755244493484497e-01 -3.8362616300582886e-01</leafValues></_>
        <_>
          <internalNodes>
            0 -1 221 -1.2622779235243797e-02</internalNodes>
          <leafValues>
            6.6632813215255737e-01 -2.9486995935440063e-01</leafValues></_>
        <_>
          <internalNodes>
            0 -1 473 -8.8407285511493683e-03</internalNodes>
          <leafValues>
            5.8831256628036499e-01 -2.6393297314643860e-01</leafValues></_>
        <_>
          <internalNodes>
            0 -1 55 -1.4394083060324192e-02</internalNodes>
          <leafValues>
            5.0076311826705933e-01 -3.0301475524902344e-01</leafValues></_>
        <_>
          <internalNodes>
            0 -1 136 -4.6764798462390900e-02</internalNodes>
          <leafValues>
            -7.6390653848648071e-01 1.8748937547206879e-01</leafValues></_>
        <_>
          <internalNodes>
            0 -1 138 3.3832419663667679e-02</internalNodes>
          <leafValues>
            2.5198820233345032e-01 -6.5514230728149414e-01</leafValues></_>
        <_>
          <internalNodes>
            0 -1 48 4.1999034583568573e-02</internalNodes>
          <leafValues>
            -2.3228444159030914e-01 6.0544776916503906e-01</leafValues></_>
        <_>
          <internalNodes>
            0 -1 395 7.7433418482542038e-05</internalNodes>
          <leafValues>
            -3.1325346231460571e-01 3.3149498701095581e-01</leafValues></_>
        <_>
          <internalNodes>
            0 -1 72 -2.5711864233016968e-02</internalNodes>
          <leafValues>
            6.4746963977813721e-01 -1.7092187702655792e-01</leafValues></_></weakClassifiers></_>
    <!-- stage 1 -->
    <_>
      <maxWeakCount>11</maxWeakCount>
      <stageThreshold>-1.7788342237472534e+00</stageThreshold>
      <weakClassifiers>
        <_>
          <internalNodes>
            0 -1 503 -2.7493340894579887e-03</internalNodes>
          <leafValues>
            5.7703083753585815e-01 -6.4276570081710815e-01</leafValues></_>
        <_>
          <internalNodes>
            0 -1 243 -7.3819565586745739e-03</internalNodes>
          <leafValues>
            5.8103263378143311e-01 -3.9568093419075012e-01</leafValues></_>
        <_>
          <internalNodes>
            0 -1 273 -5.5010286159813404e-03</internalNodes>
          <leafValues>
            5.7566678524017334e-01 -3.1121325492858887e-01</leafValues></_>
        <_>
          <internalNodes>
            0 -1 515 1.5352373011410236e-02</internalNodes>
          <leafValues>
            -2.9660463333129883e-01 4.1574236750602722e-01</leafValues></_>
        <_>
          <internalNodes>
            0 -1 325 1.4441437997447792e-05</internalNodes>
          <leafValues>
            -3.1470474600791931e-01 4.1049769520759583e-01</leafValues></_>
        <_>
          <internalNodes>
            0 -1 108 4.5368149876594543e-03</internalNodes>
          <leafValues>
            -2.3406764864921570e-01 5.3830212354660034e-01</leafValues></_>
        <_>
          <internalNodes>
            0 -1 206 -3.0135041102766991e-02</internalNodes>
          <leafValues>
            -7.7360355854034424e-01 1.7153777182102203e-01</leafValues></_>
        <_>
          <internalNodes>
            0 -1 207 -4.5739405322819948e-05</internalNodes>
          <leafValues>
            2.9368036985397339e-01 -3.7480056285858154e-01</leafValues></_>
        <_>
          <internalNodes>
            0 -1 381 -4.3990917503833771e-02</internalNodes>
          <leafValues>
            4.8652029037475586e-01 -2.5331175327301025e-01</leafValues></_>
        <_>
          <internalNodes>
            0 -1 146 -9.6206553280353546e-03</internalNodes>
          <leafValues>
            6.6231060028076172e-01 -1.4558538794517517e-01</leafValues></_>
        <_>
          <internalNodes>
            0 -1 104 -1.5278743376256898e-05</internalNodes>
          <leafValues>
            3.1094756722450256e-01 -3.6246532201766968e-01</leafValues></_></weakClassifiers></_>
    <!-- stage 2 -->
    <_>
      <maxWeakCount>14</maxWeakCount>
      <stageThreshold>-1.7430113554000854e+00</stageThreshold>
      <weakClassifiers>
        <_>
          <internalNodes>
            0 -1 434 -1.6704332083463669e-02</internalNodes>
          <leafValues>
            4.5049506425857544e-01 -6.4547038078308105e-01</leafValues></_>
        <_>
          <internalNodes>
            0 -1 175 2.9840990900993347e-02</internalNodes>
          <leafValues>
            -4.0109708905220032e-01 5.0393801927566528e-01</leafValues></_>
        <_>
          <internalNodes>
            0 -1 224 -2.2396823391318321e-02</internalNodes>
          <leafValues>
            4.1155251860618591e-01 -3.0361247062683105e-01</leafValues></_>
        <_>
          <internalNodes>
            0 -1 271 -6.0452735051512718e-03</internalNodes>
          <leafValues>
            5.1730215549468994e-01 -2.2788679599761963e-01</leafValues></_>
        <_>
          <internalNodes>
            0 -1 469 1.0171092115342617e-02</internalNodes>
          <leafValues>
            -1.8237251043319702e-01 5.4323619604110718e-01</leafValues></_>
        <_>
          <internalNodes>
            0 -1 463 -1.4474702998995781e-02</internalNodes>
          <leafValues>
            6.3425308465957642e-01 -1.4920809864997864e-01</leafValues></_>
        <_>
          <internalNodes>
            0 -1 300 7.3501057922840118e-02</internalNodes>
          <leafValues>
            1.2637944519519806e-01 -8.6804240942001343e-01</leafValues></_>
        <_>
          <internalNodes>
            0 -1 139 4.2372345924377441e-02</internalNodes>
          <leafValues>
            1.3809140026569366e-01 -6.5335226058959961e-01</leafValues></_>
        <_>
          <internalNodes>
            0 -1 4 -5.6701611727476120e-02</internalNodes>
          <leafValues>
            3.3241850137710571e-01 -2.8871810436248779e-01</leafValues></_>
        <_>
          <internalNodes>
            0 -1 197 1.0844443459063768e-03</internalNodes>
          <leafValues>
            -2.9542386531829834e-01 3.4075513482093811e-01</leafValues></_>
        <_>
          <internalNodes>
            0 -1 237 -2.1367590874433517e-02</internalNodes>
          <leafValues>
            -8.3276361227035522e-01 1.0608885437250137e-01</leafValues></_>
        <_>
          <internalNodes>
            0 -1 413 2.4817474186420441e-02</internalNodes>
          <leafValues>
            -1.6885408759117126e-01 4.9903565645217896e-01</leafValues></_>
        <_>
          <internalNodes>
            0 -1 360 8.7836356833577156e-03</internalNodes>
          <leafValues>
            -1.2239348888397217e-01 5.7524073123931885e-01</leafValues></_>
        <_>
          <internalNodes>
            0 -1 268 7.0592621341347694e-03</internalNodes>
          <leafValues>
            1.9067804515361786e-01 -4.0154001116752625e-01</leafValues></_></weakClassifiers></_>
    <!-- stage 3 -->
    <_>
      <maxWeakCount>20</maxWeakCount>
      <stageThreshold>-1.7916743755340576e+00</stageThreshold>
      <weakClassifiers>
        <_>
          <internalNodes>
            0 -1 282 -2.2943256422877312e-02</internalNodes>
          <leafValues>
            5.1020407676696777e-01 -6.3772773742675781e-01</leafValues></_>
        <_>
          <internalNodes>
            0 -1 484 -2.2848090156912804e-03</internalNodes>
          <leafValues>
            5.3560519218444824e-01 -2.9816985130310059e-01</leafValues></_>
        <_>
          <internalNodes>
            0 -1 39 -8.6414925754070282e-03</internalNodes>
          <leafValues>
            4.5037060976028442e-01 -2.6719883084297180e-01</leafValues></_>
        <_>
          <internalNodes>
            0 -1 272 -9.1659501194953918e-03</internalNodes>
          <leafValues>
            5.6839668750762939e-01 -1.6838273406028748e-01</leafValues></_>
        <_>
          <internalNodes>
            0 -1 44 -5.7507578283548355e-02</internalNodes>
          <leafValues>
            4.2644613981246948e-01 -2.4552877247333527e-01</leafValues></_>
        <_>
          <internalNodes>
            0 -1 241 -3.0237559694796801e-03</internalNodes>
          <leafValues>
            3.9660158753395081e-01 -2.6129552721977234e-01</leafValues></_>
        <_>
          <internalNodes>
            0 -1 393 4.3549169786274433e-03</internalNodes>
          <leafValues>
            -1.7070028185844421e-01 4.8468837141990662e-01</leafValues></_>
        <_>
          <internalNodes>
            0 -1 464 -2.6214080862700939e-03</internalNodes>
          <leafValues>
            5.7450163364410400e-01 -1.3207305967807770e-01</leafValues></_>
        <_>
          <internalNodes>
            0 -1 312 -3.3442461863160133e-03</internalNodes>
          <leafValues>
            -6.0079479217529297e-01 1.6809627413749695e-01</leafValues></_>
        <_>
          <internalNodes>
            0 -1 187 -5.2608076483011246e-02</internalNodes>
          <leafValues>
            6.6840147972106934e-01 -1.5367652475833893e-01</leafValues></_>
        <_>
          <internalNodes>
            0 -1 81 1.3540399074554443e-01</internalNodes>
          <leafValues>
            9.9417090415954590e-02 -8.3092010021209717e-01</leafValues></_>
        <_>
          <internalNodes>
            0 -1 447 1.0585275012999773e-03</internalNodes>
          <leafValues>
            -1.2085124105215073e-01 5.9676074981689453e-01</leafValues></_>
        <_>
          <internalNodes>
            0 -1 64 6.6363751888275146e-02</internalNodes>
          <leafValues>
            9.9984832108020782e-02 -7.0720368623733521e-01</leafValues></_>
        <_>
          <internalNodes>
            0 -1 111 -7.4051715433597565e-02</internalNodes>
          <leafValues>
            -6.7094302177429199e-01 1.1397775262594223e-01</leafValues></_>
        <_>
          <internalNodes>
            0 -1 85 -8.9430250227451324e-03</internalNodes>
          <leafValues>
            3.5429981350898743e-01 -2.0135533809661865e-01</leafValues></_>
        <_>
          <internalNodes>
            0 -1 196 -9.0777147561311722e-03</internalNodes>
          <leafValues>
            6.0746407508850098e-01 -1.2873284518718719e-01</leafValues></_>
        <_>
          <internalNodes>
            0 -1 481 3.2486625015735626e-02</internalNodes>
          <leafValues>
            -1.2834601104259491e-01 5.4042059183120728e-01</leafValues></_>
        <_>
          <internalNodes>
            0 -1 95 -6.5303035080432892e-03</internalNodes>
          <leafValues>
            3.0119466781616211e-01 -2.1859093010425568e-01</leafValues></_>
        <_>
          <internalNodes>
            0 -1 314 5.1115900278091431e-03</internalNodes>
          <leafValues>
            1.4064690470695496e-01 -5.1196122169494629e-01</leafValues></_>
        <_>
          <internalNodes>
            0 -1 199 -7.9855900257825851e-03</internalNodes>
          <leafValues>
            2.1127183735370636e-01 -3.0251041054725647e-01</leafValues></_></weakClassifiers></_>
    <!-- stage 4 -->
    <_>
      <maxWeakCount>22</maxWeakCount>
      <stageThreshold>-1.7458659410476685e+00</stageThreshold>
      <weakClassifiers>
        <_>
          <internalNodes>
            0 -1 131 2.0383549854159355e-02</internalNodes>
          <leafValues>
            -6.6008090972900391e-01 1.4428690075874329e-01</leafValues></_>
        <_>
          <internalNodes>
            0 -1 431 -2.9325615614652634e-03</internalNodes>
          <leafValues>
            3.7668785452842712e-01 -3.4569120407104492e-01</leafValues></_>
        <_>
          <internalNodes>
            0 -1 310 1.9944000989198685e-02</internalNodes>
          <leafValues>
            -1.8265619874000549e-01 5.0981473922729492e-01</leafValues></_>
        <_>
          <internalNodes>
            0 -1 98 -2.3061422631144524e-02</internalNodes>
          <leafValues>
            3.7032303214073181e-01 -2.8014245629310608e-01</leafValues></_>
        <_>
          <internalNodes>
            0 -1 210 -4.7985650599002838e-02</internalNodes>
          <leafValues>
            6.5222018957138062e-01 -1.4818641543388367e-01</leafValues></_>
        <_>
          <internalNodes>
            0 -1 6 -3.5426217317581177e-01</internalNodes>
          <leafValues>
            5.3097742795944214e-01 -1.2495891004800797e-01</leafValues></_>
        <_>
          <internalNodes>
            0 -1 321 4.1914004832506180e-03</internalNodes>
          <leafValues>
            -2.0978970825672150e-01 3.9131599664688110e-01</leafValues></_>
        <_>
          <internalNodes>
            0 -1 400 2.5982335209846497e-03</internalNodes>
          <leafValues>
            1.6920986771583557e-01 -4.5431718230247498e-01</leafValues></_>
        <_>
          <internalNodes>
            0 -1 442 -1.7567608505487442e-02</internalNodes>
          <leafValues>
            5.8601433038711548e-01 -1.4507639408111572e-01</leafValues></_>
        <_>
          <internalNodes>
            0 -1 510 -1.4129088413028512e-05</internalNodes>
          <leafValues>
            3.0634209513664246e-01 -1.8780276179313660e-01</leafValues></_>
        <_>
          <internalNodes>
            0 -1 406 -3.0106207355856895e-02</internalNodes>
          <leafValues>
            3.3930382132530212e-01 -1.9581848382949829e-01</leafValues></_>
        <_>
          <internalNodes>
            0 -1 193 -1.1336144991219044e-02</internalNodes>
          <leafValues>
            3.4175673127174377e-01 -1.5962798893451691e-01</leafValues></_>
        <_>
          <internalNodes>
            0 -1 25 -9.3167293816804886e-03</internalNodes>
          <leafValues>
            3.1763607263565063e-01 -1.7909152805805206e-01</leafValues></_>
        <_>
          <internalNodes>
            0 -1 232 -2.4962939321994781e-02</internalNodes>
          <leafValues>
            -5.0233590602874756e-01 1.2491940706968307e-01</leafValues></_>
        <_>
          <internalNodes>
            0 -1 141 1.6714103519916534e-02</internalNodes>
          <leafValues>
            1.3158841431140900e-01 -4.4573259353637695e-01</leafValues></_>
        <_>
          <internalNodes>
            0 -1 378 -1.8562309443950653e-02</internalNodes>
          <leafValues>
            2.7754071354866028e-01 -2.0916855335235596e-01</leafValues></_>
        <_>
          <internalNodes>
            0 -1 379 -4.2787104845046997e-02</internalNodes>
          <leafValues>
            3.4339648485183716e-01 -1.8178197741508484e-01</leafValues></_>
        <_>
          <internalNodes>
            0 -1 16 1.9922161474823952e-02</internalNodes>
          <leafValues>
            1.0325524210929871e-01 -5.9022808074951172e-01</leafValues></_>
        <_>
          <internalNodes>
            0 -1 253 -3.1732924282550812e-02</internalNodes>
          <leafValues>
            -4.7269737720489502e-01 1.1893858760595322e-01</leafValues></_>
        <_>
          <internalNodes>
            0 -1 51 2.7117427438497543e-02</internalNodes>
          <leafValues>
            -1.5902738273143768e-01 3.7373062968254089e-01</leafValues></_>
        <_>
          <internalNodes>
            0 -1 76 -1.3663671910762787e-02</internalNodes>
          <leafValues>
            6.0241299867630005e-01 -9.0795457363128662e-02</leafValues></_>
        <_>
          <internalNodes>
            0 -1 317 2.1514047402888536e-03</internalNodes>
          <leafValues>
            1.5704588592052460e-01 -4.3591704964637756e-01</leafValues></_></weakClassifiers></_>
    <!-- stage 5 -->
    <_>
      <maxWeakCount>22</maxWeakCount>
      <stageThreshold>-1.6665916442871094e+00</stageThreshold>
      <weakClassifiers>
        <_>
          <internalNodes>
            0 -1 282 -2.9837358742952347e-02</internalNodes>
          <leafValues>
            4.5812806487083435e-01 -6.0091841220855713e-01</leafValues></_>
        <_>
          <internalNodes>
            0 -1 460 -1.4005182310938835e-02</internalNodes>
          <leafValues>
            3.7307900190353394e-01 -3.1794074177742004e-01</leafValues></_>
        <_>
          <internalNodes>
            0 -1 110 3.0445907264947891e-02</internalNodes>
          <leafValues>
            1.2855987250804901e-01 -6.7527520656585693e-01</leafValues></_>
        <_>
          <internalNodes>
            0 -1 356 -6.3461373792961240e-04</internalNodes>
          <leafValues>
            -4.1816654801368713e-01 2.0118562877178192e-01</leafValues></_>
        <_>
          <internalNodes>
            0 -1 334 8.6693838238716125e-03</internalNodes>
          <leafValues>
            -2.3326319456100464e-01 3.4912455081939697e-01</leafValues></_>
        <_>
          <internalNodes>
            0 -1 7 -2.7874607592821121e-02</internalNodes>
          <leafValues>
            3.4040412306785583e-01 -2.1942904591560364e-01</leafValues></_>
        <_>
          <internalNodes>
            0 -1 113 1.0951967909932137e-02</internalNodes>
          <leafValues>
            8.9967936277389526e-02 -7.7532410621643066e-01</leafValues></_>
        <_>
          <internalNodes>
            0 -1 36 -1.5502857044339180e-02</internalNodes>
          <leafValues>
            -5.1350718736648560e-01 1.3298316299915314e-01</leafValues></_>
        <_>
          <internalNodes>
            0 -1 183 -2.2130455821752548e-02</internalNodes>
          <leafValues>
            5.7804393768310547e-01 -1.1200445890426636e-01</leafValues></_>
        <_>
          <internalNodes>
            0 -1 437 -3.6520984023809433e-02</internalNodes>
          <leafValues>
            4.7565716505050659e-01 -1.3627058267593384e-01</leafValues></_>
        <_>
          <internalNodes>
            0 -1 109 -1.4249458909034729e-02</internalNodes>
          <leafValues>
            5.0311267375946045e-01 -1.3818180561065674e-01</leafValues></_>
        <_>
          <internalNodes>
            0 -1 480 4.9744047224521637e-02</internalNodes>
          <leafValues>
            -1.7338225245475769e-01 3.9481130242347717e-01</leafValues></_>
        <_>
          <internalNodes>
            0 -1 339 2.4261847138404846e-03</internalNodes>
          <leafValues>
            1.1606262624263763e-01 -5.5948978662490845e-01</leafValues></_>
        <_>
          <internalNodes>
            0 -1 119 -3.4721649717539549e-03</internalNodes>
          <leafValues>
            4.4109323620796204e-01 -1.6247887909412384e-01</leafValues></_>
        <_>
          <internalNodes>
            0 -1 403 -2.9862402006983757e-02</internalNodes>
          <leafValues>
            3.0631434917449951e-01 -2.1335542201995850e-01</leafValues></_>
        <_>
          <internalNodes>
            0 -1 135 -8.7749343365430832e-03</internalNodes>
          <leafValues>
            -6.4309144020080566e-01 1.0017766058444977e-01</leafValues></_>
        <_>
          <internalNodes>
            0 -1 243 -1.6428306698799133e-02</internalNodes>
          <leafValues>
            4.9906018376350403e-01 -1.3727441430091858e-01</leafValues></_>
        <_>
          <internalNodes>
            0 -1 416 4.3284189887344837e-03</internalNodes>
          <leafValues>
            -1.7206245660781860e-01 3.0806002020835876e-01</leafValues></_>
        <_>
          <internalNodes>
            0 -1 483 -9.8660774528980255e-03</internalNodes>
          <leafValues>
            5.5086678266525269e-01 -1.2778025865554810e-01</leafValues></_>
        <_>
          <internalNodes>
            0 -1 69 1.9802590832114220e-03</internalNodes>
          <leafValues>
            1.1290058493614197e-01 -5.6211972236633301e-01</leafValues></_>
        <_>
          <internalNodes>
            0 -1 29 -1.8314199522137642e-02</internalNodes>
          <leafValues>
            -4.8348304629325867e-01 1.1309557408094406e-01</leafValues></_>
        <_>
          <internalNodes>
            0 -1 521 -2.8071419365005568e-05</internalNodes>
          <leafValues>
            2.2724272310733795e-01 -2.2761522233486176e-01</leafValues></_></weakClassifiers></_>
    <!-- stage 6 -->
    <_>
      <maxWeakCount>21</maxWeakCount>
      <stageThreshold>-1.6909996271133423e+00</stageThreshold>
      <weakClassifiers>
        <_>
          <internalNodes>
            0 -1 257 -1.5530047938227654e-02</internalNodes>
          <leafValues>
            1.6265060007572174e-01 -6.2715715169906616e-01</leafValues></_>
        <_>
          <internalNodes>
            0 -1 208 3.7783905863761902e-02</internalNodes>
          <leafValues>
            -3.2046869397163391e-01 3.9301252365112305e-01</leafValues></_>
        <_>
          <internalNodes>
            0 -1 11 -7.7485285699367523e-02</internalNodes>
          <leafValues>
            4.2145323753356934e-01 -2.4250489473342896e-01</leafValues></_>
        <_>
          <internalNodes>
            0 -1 487 -2.3486474528908730e-03</internalNodes>
          <leafValues>
            4.6200773119926453e-01 -1.9227942824363708e-01</leafValues></_>
        <_>
          <internalNodes>
            0 -1 340 -3.6882841959595680e-03</internalNodes>
          <leafValues>
            -6.3334470987319946e-01 1.1648958921432495e-01</leafValues></_>
        <_>
          <internalNodes>
            0 -1 130 5.8364355936646461e-03</internalNodes>
          <leafValues>
            -2.1933241188526154e-01 3.3083605766296387e-01</leafValues></_>
        <_>
          <internalNodes>
            0 -1 225 9.3788225203752518e-03</internalNodes>
          <leafValues>
            -2.0887462794780731e-01 3.4036228060722351e-01</leafValues></_>
        <_>
          <internalNodes>
            0 -1 402 -3.7635946646332741e-03</internalNodes>
          <leafValues>
            4.1978529095649719e-01 -1.5357965230941772e-01</leafValues></_>
        <_>
          <internalNodes>
            0 -1 223 -5.4874084889888763e-02</internalNodes>
          <leafValues>
            6.8248856067657471e-01 -7.7065356075763702e-02</leafValues></_>
        <_>
          <internalNodes>
            0 -1 297 5.5997334420681000e-02</internalNodes>
          <leafValues>
            9.6283569931983948e-02 -8.1045866012573242e-01</leafValues></_>
        <_>
          <internalNodes>
            0 -1 181 3.7793517112731934e-02</internalNodes>
          <leafValues>
            -1.7142172157764435e-01 4.7258102893829346e-01</leafValues></_>
        <_>
          <internalNodes>
            0 -1 500 7.3911163781303912e-05</internalNodes>
          <leafValues>
            -2.6147955656051636e-01 2.6472485065460205e-01</leafValues></_>
        <_>
          <internalNodes>
            0 -1 62 1.0492100380361080e-02</internalNodes>
          <leafValues>
            9.6326939761638641e-02 -5.7251203060150146e-01</leafValues></_>
        <_>
          <internalNodes>
            0 -1 470 -2.1144729107618332e-03</internalNodes>
          <leafValues>
            -5.8624279499053955e-01 9.9359706044197083e-02</leafValues></_>
        <_>
          <internalNodes>
            0 -1 438 -3.8308367133140564e-02</internalNodes>
          <leafValues>
            4.1494858264923096e-01 -1.5199382603168488e-01</leafValues></_>
        <_>
          <internalNodes>
            0 -1 386 -7.8553268685936928e-03</internalNodes>
          <leafValues>
            3.3957931399345398e-01 -2.1292042732238770e-01</leafValues></_>
        <_>
          <internalNodes>
            0 -1 149 -2.4159882217645645e-02</internalNodes>
          <leafValues>
            2.7632531523704529e-01 -2.1124054491519928e-01</leafValues></_>
        <_>
          <internalNodes>
            0 -1 287 1.1700692586600780e-02</internalNodes>
          <leafValues>
            -1.2039109319448471e-01 4.6999463438987732e-01</leafValues></_>
        <_>
          <internalNodes>
            0 -1 516 -9.2177186161279678e-04</internalNodes>
          <leafValues>
            -5.2232992649078369e-01 1.1905597895383835e-01</leafValues></_>
        <_>
          <internalNodes>
            0 -1 416 -1.5491159632802010e-02</internalNodes>
          <leafValues>
            6.9192028045654297e-01 -9.0678647160530090e-02</leafValues></_>
        <_>
          <internalNodes>
            0 -1 37 8.0163225531578064e-02</internalNodes>
          <leafValues>
            8.8683128356933594e-02 -7.8214150667190552e-01</leafValues></_></weakClassifiers></_>
    <!-- stage 7 -->
    <_>
      <maxWeakCount>26</maxWeakCount>
      <stageThreshold>-1.7774783372879028e+00</stageThreshold>
      <weakClassifiers>
        <_>
          <internalNodes>
            0 -1 264 -2.2604312747716904e-02</internalNodes>
          <leafValues>
            -2.8083028271794319e-02 -6.7889422178268433e-01</leafValues></_>
        <_>
          <internalNodes>
            0 -1 497 1.1610348010435700e-03</internalNodes>
          <leafValues>
            -4.3005120754241943e-01 1.7064832150936127e-01</leafValues></_>
        <_>
          <internalNodes>
            0 -1 245 3.5714462865144014e-04</internalNodes>
          <leafValues>
            1.1021710187196732e-01 -6.2806010246276855e-01</leafValues></_>
        <_>
          <internalNodes>
            0 -1 217 3.0406599398702383e-04</internalNodes>
          <leafValues>
            1.7396926879882813e-01 -4.6835902333259583e-01</leafValues></_>
        <_>
          <internalNodes>
            0 -1 372 1.9858755695167929e-04</internalNodes>
          <leafValues>
            -2.9777410626411438e-01 2.2898527979850769e-01</leafValues></_>
        <_>
          <internalNodes>
            0 -1 13 -7.7967852354049683e-02</internalNodes>
          <leafValues>
            3.1562888622283936e-01 -2.0399549603462219e-01</leafValues></_>
        <_>
          <internalNodes>
            0 -1 126 1.8074880354106426e-03</internalNodes>
          <leafValues>
            -2.4969795346260071e-01 3.3029115200042725e-01</leafValues></_>
        <_>
          <internalNodes>
            0 -1 311 -8.4996912628412247e-03</internalNodes>
          <leafValues>
            3.1744578480720520e-01 -1.9881969690322876e-01</leafValues></_>
        <_>
          <internalNodes>
            0 -1 357 -3.2001593353925273e-05</internalNodes>
          <leafValues>
            2.6908355951309204e-01 -2.2067482769489288e-01</leafValues></_>
        <_>
          <internalNodes>
            0 -1 52 -2.5347015261650085e-01</internalNodes>
          <leafValues>
            5.3558129072189331e-01 -1.0298904031515121e-01</leafValues></_>
        <_>
          <internalNodes>
            0 -1 364 -5.7874128222465515e-02</internalNodes>
          <leafValues>
            3.9093300700187683e-01 -1.8010967969894409e-01</leafValues></_>
        <_>
          <internalNodes>
            0 -1 390 -6.9988444447517395e-03</internalNodes>
          <leafValues>
            3.1697541475296021e-01 -1.8209895491600037e-01</leafValues></_>
        <_>
          <internalNodes>
            0 -1 382 -2.9571725055575371e-02</internalNodes>
          <leafValues>
            -6.7403733730316162e-01 9.3978598713874817e-02</leafValues></_>
        <_>
          <internalNodes>
            0 -1 70 -9.8575934767723083e-02</internalNodes>
          <leafValues>
            5.5260705947875977e-01 -1.2534290552139282e-01</leafValues></_>
        <_>
          <internalNodes>
            0 -1 452 2.5553902378305793e-04</internalNodes>
          <leafValues>
            1.3152578473091125e-01 -4.1183909773826599e-01</leafValues></_>
        <_>
          <internalNodes>
            0 -1 362 4.5541361905634403e-03</internalNodes>
          <leafValues>
            -1.3554435968399048e-01 4.2994648218154907e-01</leafValues></_>
        <_>
          <internalNodes>
            0 -1 478 6.0958638787269592e-03</internalNodes>
          <leafValues>
            1.0346827656030655e-01 -5.4685699939727783e-01</leafValues></_>
        <_>
          <internalNodes>
            0 -1 152 -1.6105979681015015e-02</internalNodes>
          <leafValues>
            5.6509196758270264e-01 -9.9340766668319702e-02</leafValues></_>
        <_>
          <internalNodes>
            0 -1 150 -1.9349286332726479e-02</internalNodes>
          <leafValues>
            2.9069593548774719e-01 -2.0902328193187714e-01</leafValues></_>
        <_>
          <internalNodes>
            0 -1 226 6.0176629573106766e-02</internalNodes>
          <leafValues>
            8.8734425604343414e-02 -6.2155491113662720e-01</leafValues></_>
        <_>
          <internalNodes>
            0 -1 487 1.6479012556374073e-03</internalNodes>
          <leafValues>
            -1.2706539034843445e-01 4.3535771965980530e-01</leafValues></_>
        <_>
          <internalNodes>
            0 -1 391 -1.9857052247971296e-03</internalNodes>
          <leafValues>
            -5.4603886604309082e-01 1.0335708409547806e-01</leafValues></_>
        <_>
          <internalNodes>
            0 -1 509 2.8298258257564157e-05</internalNodes>
          <leafValues>
            -2.5035175681114197e-01 2.3252324759960175e-01</leafValues></_>
        <_>
          <internalNodes>
            0 -1 147 7.1520302444696426e-03</internalNodes>
          <leafValues>
            -1.2190754711627960e-01 4.9628603458404541e-01</leafValues></_>
        <_>
          <internalNodes>
            0 -1 144 6.9533223286271095e-03</internalNodes>
          <leafValues>
            -1.3865119218826294e-01 3.9329916238784790e-01</leafValues></_>
        <_>
          <internalNodes>
            0 -1 507 1.4365366660058498e-03</internalNodes>
          <leafValues>
            -1.4081472158432007e-01 3.9472162723541260e-01</leafValues></_></weakClassifiers></_>
    <!-- stage 8 -->
    <_>
      <maxWeakCount>24</maxWeakCount>
      <stageThreshold>-1.6665624380111694e+00</stageThreshold>
      <weakClassifiers>
        <_>
          <internalNodes>
            0 -1 156 1.9338244572281837e-02</internalNodes>
          <leafValues>
            -6.1398726701736450e-01 1.0441767424345016e-01</leafValues></_>
        <_>
          <internalNodes>
            0 -1 486 -1.0668024420738220e-02</internalNodes>
          <leafValues>
            3.3147159218788147e-01 -2.8773179650306702e-01</leafValues></_>
        <_>
          <internalNodes>
            0 -1 335 -1.8030753126367927e-03</internalNodes>
          <leafValues>
            2.9558071494102478e-01 -2.4527440965175629e-01</leafValues></_>
        <_>
          <internalNodes>
            0 -1 328 6.8978886120021343e-03</internalNodes>
          <leafValues>
            -3.3692350983619690e-01 2.1690995991230011e-01</leafValues></_>
        <_>
          <internalNodes>
            0 -1 496 3.1459197402000427e-02</internalNodes>
          <leafValues>
            -1.4751106500625610e-01 5.0812369585037231e-01</leafValues></_>
        <_>
          <internalNodes>
            0 -1 426 2.0772390416823328e-04</internalNodes>
          <leafValues>
            1.9660924375057220e-01 -4.6638125181198120e-01</leafValues></_>
        <_>
          <internalNodes>
            0 -1 426 -1.6932378639467061e-04</internalNodes>
          <leafValues>
            -3.7258860468864441e-01 1.7542614042758942e-01</leafValues></_>
        <_>
          <internalNodes>
            0 -1 14 -3.4742668271064758e-02</internalNodes>
          <leafValues>
            3.6295747756958008e-01 -2.0876184105873108e-01</leafValues></_>
        <_>
          <internalNodes>
            0 -1 446 1.3865163549780846e-02</internalNodes>
          <leafValues>
            7.7712297439575195e-02 -8.1677991151809692e-01</leafValues></_>
        <_>
          <internalNodes>
            0 -1 230 1.0721726343035698e-02</internalNodes>
          <leafValues>
            -2.4676285684108734e-01 2.3446945846080780e-01</leafValues></_>
        <_>
          <internalNodes>
            0 -1 267 -1.3825571164488792e-02</internalNodes>
          <leafValues>
            -8.3728253841400146e-01 7.1768261492252350e-02</leafValues></_>
        <_>
          <internalNodes>
            0 -1 316 4.4226925820112228e-03</internalNodes>
          <leafValues>
            1.0087805986404419e-01 -5.2806252241134644e-01</leafValues></_>
        <_>
          <internalNodes>
            0 -1 28 5.6422268971800804e-03</internalNodes>
          <leafValues>
            1.0189554095268250e-01 -4.8032492399215698e-01</leafValues></_>
        <_>
          <internalNodes>
            0 -1 249 2.6219317223876715e-03</internalNodes>
          <leafValues>
            -2.2009031474590302e-01 2.6857730746269226e-01</leafValues></_>
        <_>
          <internalNodes>
            0 -1 114 -6.0935551300644875e-03</internalNodes>
          <leafValues>
            4.3584939837455750e-01 -1.4708684384822845e-01</leafValues></_>
        <_>
          <internalNodes>
            0 -1 101 -3.1663410365581512e-02</internalNodes>
          <leafValues>
            5.1394081115722656e-01 -8.5786372423171997e-02</leafValues></_>
        <_>
          <internalNodes>
            0 -1 524 3.0031742062419653e-03</internalNodes>
          <leafValues>
            1.2920032441616058e-01 -4.2597863078117371e-01</leafValues></_>
        <_>
          <internalNodes>
            0 -1 78 3.2575316727161407e-02</internalNodes>
          <leafValues>
            -1.3583248853683472e-01 3.8721236586570740e-01</leafValues></_>
        <_>
          <internalNodes>
            0 -1 188 -7.4440494179725647e-02</internalNodes>
          <leafValues>
            3.2475051283836365e-01 -1.7718201875686646e-01</leafValues></_>
        <_>
          <internalNodes>
            0 -1 151 4.8308223485946655e-02</internalNodes>
          <leafValues>
            -1.5461610257625580e-01 3.7092861533164978e-01</leafValues></_>
        <_>
          <internalNodes>
            0 -1 350 -6.5692327916622162e-03</internalNodes>
          <leafValues>
            2.5665020942687988e-01 -2.0551043748855591e-01</leafValues></_>
        <_>
          <internalNodes>
            0 -1 195 4.0470764040946960e-02</internalNodes>
          <leafValues>
            8.5683353245258331e-02 -6.3518720865249634e-01</leafValues></_>
        <_>
          <internalNodes>
            0 -1 490 -5.6857140734791756e-03</internalNodes>
          <leafValues>
            1.7310635745525360e-01 -2.6409694552421570e-01</leafValues></_>
        <_>
          <internalNodes>
            0 -1 485 -1.3051277957856655e-02</internalNodes>
          <leafValues>
            -8.1990164518356323e-01 6.0535952448844910e-02</leafValues></_></weakClassifiers></_>
    <!-- stage 9 -->
    <_>
      <maxWeakCount>24</maxWeakCount>
      <stageThreshold>-1.6558674573898315e+00</stageThreshold>
      <weakClassifiers>
        <_>
          <internalNodes>
            0 -1 348 1.3372687622904778e-02</internalNodes>
          <leafValues>
            -6.3800686597824097e-01 9.1883614659309387e-03</leafValues></_>
        <_>
          <internalNodes>
            0 -1 401 3.6361307138577104e-04</internalNodes>
          <leafValues>
            6.7623317241668701e-02 -6.7495691776275635e-01</leafValues></_>
        <_>
          <internalNodes>
            0 -1 401 -2.0911567844450474e-04</internalNodes>
          <leafValues>
            -5.5871289968490601e-01 1.7950452864170074e-01</leafValues></_>
        <_>
          <internalNodes>
            0 -1 20 -3.3932782709598541e-02</internalNodes>
          <leafValues>
            4.1222175955772400e-01 -2.1175377070903778e-01</leafValues></_>
        <_>
          <internalNodes>
            0 -1 80 -2.1404463052749634e-01</internalNodes>
          <leafValues>
            6.6095578670501709e-01 -1.2787723541259766e-01</leafValues></_>
        <_>
          <internalNodes>
            0 -1 293 -4.5358233153820038e-02</internalNodes>
          <leafValues>
            4.8731830716133118e-01 -1.0934725403785706e-01</leafValues></_>
        <_>
          <internalNodes>
            0 -1 167 -2.1289668511599302e-03</internalNodes>
          <leafValues>
            -5.8177703619003296e-01 1.0380494594573975e-01</leafValues></_>
        <_>
          <internalNodes>
            0 -1 117 1.0580646339803934e-03</internalNodes>
          <leafValues>
            1.4166629314422607e-01 -5.4721122980117798e-01</leafValues></_>
        <_>
          <internalNodes>
            0 -1 63 7.4106161482632160e-03</internalNodes>
          <leafValues>
            -1.6834931075572968e-01 3.8322114944458008e-01</leafValues></_>
        <_>
          <internalNodes>
            0 -1 116 1.3177255168557167e-02</internalNodes>
          <leafValues>
            -1.2142725288867950e-01 4.4972839951515198e-01</leafValues></_>
        <_>
          <internalNodes>
            0 -1 165 -2.1086586639285088e-03</internalNodes>
          <leafValues>
            2.9013624787330627e-01 -1.7693294584751129e-01</leafValues></_>
        <_>
          <internalNodes>
            0 -1 292 -8.2336589694023132e-03</internalNodes>
          <leafValues>
            2.9505148530006409e-01 -1.9023106992244720e-01</leafValues></_>
        <_>
          <internalNodes>
            0 -1 367 -1.1426978744566441e-04</internalNodes>
          <leafValues>
            -3.4675878286361694e-01 1.6151031851768494e-01</leafValues></_>
        <_>
          <internalNodes>
            0 -1 56 -2.4129398167133331e-02</internalNodes>
          <leafValues>
            7.0344430208206177e-01 -7.6459646224975586e-02</leafValues></_>
        <_>
          <internalNodes>
            0 -1 424 1.3628620945382863e-04</internalNodes>
          <leafValues>
            1.5333545207977295e-01 -3.2719025015830994e-01</leafValues></_>
        <_>
          <internalNodes>
            0 -1 424 -1.9886800146196038e-04</internalNodes>
          <leafValues>
            -3.7945273518562317e-01 1.5647922456264496e-01</leafValues></_>
        <_>
          <internalNodes>
            0 -1 198 -1.6607040166854858e-01</internalNodes>
          <leafValues>
            -8.4931772947311401e-01 5.0347961485385895e-02</leafValues></_>
        <_>
          <internalNodes>
            0 -1 31 -9.4738751649856567e-02</internalNodes>
          <leafValues>
            -5.8605802059173584e-01 6.9184005260467529e-02</leafValues></_>
        <_>
          <internalNodes>
            0 -1 399 -1.2124021537601948e-02</internalNodes>
          <leafValues>
            2.7551880478858948e-01 -1.7251354455947876e-01</leafValues></_>
        <_>
          <internalNodes>
            0 -1 43 -2.6829452253878117e-03</internalNodes>
          <leafValues>
            -3.8033401966094971e-01 1.3567982614040375e-01</leafValues></_>
        <_>
          <internalNodes>
            0 -1 520 -1.2423342093825340e-02</internalNodes>
          <leafValues>
            -6.9957298040390015e-01 6.3003458082675934e-02</leafValues></_>
        <_>
          <internalNodes>
            0 -1 392 -1.1549299961188808e-04</internalNodes>
          <leafValues>
            -3.0846533179283142e-01 1.4232522249221802e-01</leafValues></_>
        <_>
          <internalNodes>
            0 -1 215 1.9294163212180138e-03</internalNodes>
          <leafValues>
            8.8693983852863312e-02 -5.2443307638168335e-01</leafValues></_>
        <_>
          <internalNodes>
            0 -1 106 -2.2640172392129898e-03</internalNodes>
          <leafValues>
            2.0589336752891541e-01 -2.3324745893478394e-01</leafValues></_></weakClassifiers></_>
    <!-- stage 10 -->
    <_>
      <maxWeakCount>26</maxWeakCount>
      <stageThreshold>-1.7113664150238037e+00</stageThreshold>
      <weakClassifiers>
        <_>
          <internalNodes>
            0 -1 280 -4.1296988725662231e-02</internalNodes>
          <leafValues>
            3.7793850898742676e-01 -5.7953375577926636e-01</leafValues></_>
        <_>
          <internalNodes>
            0 -1 269 3.5304791526868939e-04</internalNodes>
          <leafValues>
            6.4989909529685974e-02 -6.7551994323730469e-01</leafValues></_>
        <_>
          <internalNodes>
            0 -1 270 -2.1697569172829390e-04</internalNodes>
          <leafValues>
            -4.6860647201538086e-01 1.6229584813117981e-01</leafValues></_>
        <_>
          <internalNodes>
            0 -1 494 -1.9848234951496124e-03</internalNodes>
          <leafValues>
            2.6062747836112976e-01 -3.0365759134292603e-01</leafValues></_>
        <_>
          <internalNodes>
            0 -1 409 4.3117709457874298e-02</internalNodes>
          <leafValues>
            -8.7600074708461761e-02 5.8456736803054810e-01</leafValues></_>
        <_>
          <internalNodes>
            0 -1 443 -2.5942199863493443e-03</internalNodes>
          <leafValues>
            -6.1643981933593750e-01 1.0578125715255737e-01</leafValues></_>
        <_>
          <internalNodes>
            0 -1 270 1.8414013902656734e-04</internalNodes>
          <leafValues>
            1.3398452103137970e-01 -4.2859059572219849e-01</leafValues></_>
        <_>
          <internalNodes>
            0 -1 172 5.1881554536521435e-03</internalNodes>
          <leafValues>
            -2.1465763449668884e-01 2.7219051122665405e-01</leafValues></_>
        <_>
          <internalNodes>
            0 -1 1 5.9165479615330696e-04</internalNodes>
          <leafValues>
            1.8019309639930725e-01 -3.4609195590019226e-01</leafValues></_>
        <_>
          <internalNodes>
            0 -1 481 4.0029212832450867e-02</internalNodes>
          <leafValues>
            -1.1184658110141754e-01 4.9602895975112915e-01</leafValues></_>
        <_>
          <internalNodes>
            0 -1 441 -2.9317350126802921e-03</internalNodes>
          <leafValues>
            -5.7568770647048950e-01 9.5472224056720734e-02</leafValues></_>
        <_>
          <internalNodes>
            0 -1 417 6.5504419617354870e-03</internalNodes>
          <leafValues>
            -1.8063281476497650e-01 2.9904067516326904e-01</leafValues></_>
        <_>
          <internalNodes>
            0 -1 236 3.2405714591732249e-05</internalNodes>
          <leafValues>
            -2.8678473830223083e-01 1.9302625954151154e-01</leafValues></_>
        <_>
          <internalNodes>
            0 -1 489 6.5811332315206528e-03</internalNodes>
          <leafValues>
            -1.2505665421485901e-01 4.2164936661720276e-01</leafValues></_>
        <_>
          <internalNodes>
            0 -1 307 -1.6247088206000626e-04</internalNodes>
          <leafValues>
            -3.4876701235771179e-01 1.5927045047283173e-01</leafValues></_>
        <_>
          <internalNodes>
            0 -1 495 -2.9775546863675117e-03</internalNodes>
          <leafValues>
            -6.0357278585433960e-01 8.4679923951625824e-02</leafValues></_>
        <_>
          <internalNodes>
            0 -1 341 -9.0780761092901230e-03</internalNodes>
          <leafValues>
            2.9847747087478638e-01 -1.5883696079254150e-01</leafValues></_>
        <_>
          <internalNodes>
            0 -1 306 1.3754665269516408e-04</internalNodes>
          <leafValues>
            1.4769165217876434e-01 -3.5268783569335938e-01</leafValues></_>
        <_>
          <internalNodes>
            0 -1 286 2.5441800244152546e-03</internalNodes>
          <leafValues>
            -1.2580613791942596e-01 3.8628509640693665e-01</leafValues></_>
        <_>
          <internalNodes>
            0 -1 203 6.7957602441310883e-03</internalNodes>
          <leafValues>
            -1.8020166456699371e-01 2.6746016740798950e-01</leafValues></_>
        <_>
          <internalNodes>
            0 -1 9 -1.1503740400075912e-01</internalNodes>
          <leafValues>
            3.4344282746315002e-01 -1.5850681066513062e-01</leafValues></_>
        <_>
          <internalNodes>
            0 -1 134 -3.5994865000247955e-02</internalNodes>
          <leafValues>
            -5.6882876157760620e-01 9.0466685593128204e-02</leafValues></_>
        <_>
          <internalNodes>
            0 -1 137 2.2487573325634003e-02</internalNodes>
          <leafValues>
            1.2732550501823425e-01 -3.9755365252494812e-01</leafValues></_>
        <_>
          <internalNodes>
            0 -1 118 -1.5513392165303230e-02</internalNodes>
          <leafValues>
            -6.0969096422195435e-01 6.6181510686874390e-02</leafValues></_>
        <_>
          <internalNodes>
            0 -1 129 1.2644670903682709e-02</internalNodes>
          <leafValues>
            -8.4308646619319916e-02 5.4531913995742798e-01</leafValues></_>
        <_>
          <internalNodes>
            0 -1 42 4.7518610954284668e-02</internalNodes>
          <leafValues>
            -1.3232138752937317e-01 3.6789906024932861e-01</leafValues></_></weakClassifiers></_>
    <!-- stage 11 -->
    <_>
      <maxWeakCount>30</maxWeakCount>
      <stageThreshold>-1.6581014394760132e+00</stageThreshold>
      <weakClassifiers>
        <_>
          <internalNodes>
            0 -1 259 -1.1062903329730034e-02</internalNodes>
          <leafValues>
            3.9518900215625763e-02 -6.2464588880538940e-01</leafValues></_>
        <_>
          <internalNodes>
            0 -1 457 -4.8452410846948624e-03</internalNodes>
          <leafValues>
            3.6484804749488831e-01 -2.9591137170791626e-01</leafValues></_>
        <_>
          <internalNodes>
            0 -1 266 4.5472155325114727e-03</internalNodes>
          <leafValues>
            -2.6360341906547546e-01 2.6953715085983276e-01</leafValues></_>
        <_>
          <internalNodes>
            0 -1 23 -3.2675351947546005e-02</internalNodes>
          <leafValues>
            3.7604749202728271e-01 -1.5328377485275269e-01</leafValues></_>
        <_>
          <internalNodes>
            0 -1 493 3.0349004082381725e-03</internalNodes>
          <leafValues>
            -1.5403467416763306e-01 3.4745299816131592e-01</leafValues></_>
        <_>
          <internalNodes>
            0 -1 396 4.9756998196244240e-03</internalNodes>
          <leafValues>
            -1.6848826408386230e-01 2.9588198661804199e-01</leafValues></_>
        <_>
          <internalNodes>
            0 -1 358 -3.1266122823581100e-04</internalNodes>
          <leafValues>
            -4.2665779590606689e-01 1.6617561876773834e-01</leafValues></_>
        <_>
          <internalNodes>
            0 -1 289 1.2196460738778114e-03</internalNodes>
          <leafValues>
            9.6166633069515228e-02 -4.1088265180587769e-01</leafValues></_>
        <_>
          <internalNodes>
            0 -1 201 2.5866357609629631e-03</internalNodes>
          <leafValues>
            -2.6456910371780396e-01 2.0612549781799316e-01</leafValues></_>
        <_>
          <internalNodes>
            0 -1 420 2.8837434947490692e-02</internalNodes>
          <leafValues>
            7.6781116425991058e-02 -8.7024152278900146e-01</leafValues></_>
        <_>
          <internalNodes>
            0 -1 87 -3.3984631299972534e-03</internalNodes>
          <leafValues>
            -6.5563005208969116e-01 3.2568074762821198e-02</leafValues></_>
        <_>
          <internalNodes>
            0 -1 368 2.4303980171680450e-02</internalNodes>
          <leafValues>
            -1.0219704359769821e-01 4.3956866860389709e-01</leafValues></_>
        <_>
          <internalNodes>
            0 -1 347 -4.6605743467807770e-02</internalNodes>
          <leafValues>
            3.1026458740234375e-01 -1.5159875154495239e-01</leafValues></_>
        <_>
          <internalNodes>
            0 -1 50 5.9363834559917450e-02</internalNodes>
          <leafValues>
            1.2038185447454453e-01 -4.5264223217964172e-01</leafValues></_>
        <_>
          <internalNodes>
            0 -1 121 1.2258684728294611e-03</internalNodes>
          <leafValues>
            9.7747221589088440e-02 -4.7302603721618652e-01</leafValues></_>
        <_>
          <internalNodes>
            0 -1 353 2.5236974470317364e-03</internalNodes>
          <leafValues>
            -1.6575808823108673e-01 3.0612123012542725e-01</leafValues></_>
        <_>
          <internalNodes>
            0 -1 252 2.8741965070366859e-03</internalNodes>
          <leafValues>
            -2.1155686676502228e-01 2.8779387474060059e-01</leafValues></_>
        <_>
          <internalNodes>
            0 -1 112 -1.0335570201277733e-02</internalNodes>
          <leafValues>
            4.4602060317993164e-01 -1.0906130075454712e-01</leafValues></_>
        <_>
          <internalNodes>
            0 -1 33 1.6030041500926018e-02</internalNodes>
          <leafValues>
            -1.7655961215496063e-01 2.6005846261978149e-01</leafValues></_>
        <_>
          <internalNodes>
            0 -1 192 6.5465018153190613e-02</internalNodes>
          <leafValues>
            6.3351988792419434e-02 -7.0696723461151123e-01</leafValues></_>
        <_>
          <internalNodes>
            0 -1 523 1.7943480052053928e-03</internalNodes>
          <leafValues>
            1.1339920759201050e-01 -3.7306383252143860e-01</leafValues></_>
        <_>
          <internalNodes>
            0 -1 502 -1.5799688175320625e-02</internalNodes>
          <leafValues>
            -7.6361674070358276e-01 5.0114586949348450e-02</leafValues></_>
        <_>
          <internalNodes>
            0 -1 498 1.2829818842874374e-05</internalNodes>
          <leafValues>
            -2.3156568408012390e-01 1.6940303146839142e-01</leafValues></_>
        <_>
          <internalNodes>
            0 -1 517 2.4796479847282171e-03</internalNodes>
          <leafValues>
            -1.3385482132434845e-01 3.6448368430137634e-01</leafValues></_>
        <_>
          <internalNodes>
            0 -1 466 -6.8518714979290962e-03</internalNodes>
          <leafValues>
            -6.2243413925170898e-01 6.8801067769527435e-02</leafValues></_>
        <_>
          <internalNodes>
            0 -1 213 3.4659178345464170e-04</internalNodes>
          <leafValues>
            7.5701668858528137e-02 -4.7922942042350769e-01</leafValues></_>
        <_>
          <internalNodes>
            0 -1 166 2.5334300473332405e-02</internalNodes>
          <leafValues>
            -7.1136958897113800e-02 6.9592607021331787e-01</leafValues></_>
        <_>
          <internalNodes>
            0 -1 35 -1.5769941732287407e-02</internalNodes>
          <leafValues>
            -6.7699682712554932e-01 7.4624031782150269e-02</leafValues></_>
        <_>
          <internalNodes>
            0 -1 216 -3.0278060585260391e-03</internalNodes>
          <leafValues>
            3.4060031175613403e-01 -1.3163769245147705e-01</leafValues></_>
        <_>
          <internalNodes>
            0 -1 242 3.8928242865949869e-03</internalNodes>
          <leafValues>
            -1.3022744655609131e-01 4.0883868932723999e-01</leafValues></_></weakClassifiers></_>
    <!-- stage 12 -->
    <_>
      <maxWeakCount>31</maxWeakCount>
      <stageThreshold>-1.6220674514770508e+00</stageThreshold>
      <weakClassifiers>
        <_>
          <internalNodes>
            0 -1 244 -1.2440437451004982e-02</internalNodes>
          <leafValues>
            -2.9370630159974098e-02 -6.4433246850967407e-01</leafValues></_>
        <_>
          <internalNodes>
            0 -1 327 9.0223401784896851e-03</internalNodes>
          <leafValues>
            -4.4411152601242065e-01 1.6638851165771484e-01</leafValues></_>
        <_>
          <internalNodes>
            0 -1 247 -3.3887503668665886e-03</internalNodes>
          <leafValues>
            3.3390951156616211e-01 -2.3711402714252472e-01</leafValues></_>
        <_>
          <internalNodes>
            0 -1 468 6.1924487818032503e-04</internalNodes>
          <leafValues>
            -3.5559123754501343e-01 2.0283207297325134e-01</leafValues></_>
        <_>
          <internalNodes>
            0 -1 427 5.1150485873222351e-02</internalNodes>
          <leafValues>
            -1.5514384210109711e-01 3.1120941042900085e-01</leafValues></_>
        <_>
          <internalNodes>
            0 -1 200 3.8412221329053864e-05</internalNodes>
          <leafValues>
            -2.5974830985069275e-01 2.0396958291530609e-01</leafValues></_>
        <_>
          <internalNodes>
            0 -1 408 -2.0098637789487839e-02</internalNodes>
          <leafValues>
            -4.9022361636161804e-01 1.1614587157964706e-01</leafValues></_>
        <_>
          <internalNodes>
            0 -1 412 -5.7973125949501991e-03</internalNodes>
          <leafValues>
            2.4440553784370422e-01 -2.4755662679672241e-01</leafValues></_>
        <_>
          <internalNodes>
            0 -1 488 2.2837782744318247e-03</internalNodes>
          <leafValues>
            -1.5095977485179901e-01 3.4599822759628296e-01</leafValues></_>
        <_>
          <internalNodes>
            0 -1 454 1.3303266838192940e-02</internalNodes>
          <leafValues>
            9.3270204961299896e-02 -6.0307592153549194e-01</leafValues></_>
        <_>
          <internalNodes>
            0 -1 75 -4.7051720321178436e-02</internalNodes>
          <leafValues>
            -5.9881591796875000e-01 6.8304874002933502e-02</leafValues></_>
        <_>
          <internalNodes>
            0 -1 12 3.2490766607224941e-03</internalNodes>
          <leafValues>
            1.2483055889606476e-01 -3.5856050252914429e-01</leafValues></_>
        <_>
          <internalNodes>
            0 -1 127 7.0556392893195152e-03</internalNodes>
          <leafValues>
            6.8417698144912720e-02 -5.6000977754592896e-01</leafValues></_>
        <_>
          <internalNodes>
            0 -1 125 -1.9135272596031427e-03</internalNodes>
          <leafValues>
            2.2712208330631256e-01 -2.0487403869628906e-01</leafValues></_>
        <_>
          <internalNodes>
            0 -1 92 1.1238286271691322e-02</internalNodes>
          <leafValues>
            -8.6602643132209778e-02 5.2688378095626831e-01</leafValues></_>
        <_>
          <internalNodes>
            0 -1 462 -1.2688234448432922e-02</internalNodes>
          <leafValues>
            -9.3066906929016113e-01 4.9201887100934982e-02</leafValues></_>
        <_>
          <internalNodes>
            0 -1 475 2.6841193903237581e-04</internalNodes>
          <leafValues>
            9.1311872005462646e-02 -4.1734370589256287e-01</leafValues></_>
        <_>
          <internalNodes>
            0 -1 285 9.0443976223468781e-03</internalNodes>
          <leafValues>
            -1.1045063287019730e-01 4.3690907955169678e-01</leafValues></_>
        <_>
          <internalNodes>
            0 -1 301 7.1504421532154083e-02</internalNodes>
          <leafValues>
            5.2746493369340897e-02 -8.9583879709243774e-01</leafValues></_>
        <_>
          <internalNodes>
            0 -1 211 -1.4645835384726524e-02</internalNodes>
          <leafValues>
            4.5306238532066345e-01 -1.0132228583097458e-01</leafValues></_>
        <_>
          <internalNodes>
            0 -1 375 5.5154733126983047e-04</internalNodes>
          <leafValues>
            -2.0510210096836090e-01 2.0728118717670441e-01</leafValues></_>
        <_>
          <internalNodes>
            0 -1 32 7.6210908591747284e-03</internalNodes>
          <leafValues>
            1.0303775221109390e-01 -4.2700478434562683e-01</leafValues></_>
        <_>
          <internalNodes>
            0 -1 10 2.2285742685198784e-02</internalNodes>
          <leafValues>
            -1.2371369451284409e-01 3.5067903995513916e-01</leafValues></_>
        <_>
          <internalNodes>
            0 -1 415 2.8496365994215012e-02</internalNodes>
          <leafValues>
            -7.9023592174053192e-02 5.3494304418563843e-01</leafValues></_>
        <_>
          <internalNodes>
            0 -1 355 1.5412593493238091e-03</internalNodes>
          <leafValues>
            9.5717363059520721e-02 -5.1044505834579468e-01</leafValues></_>
        <_>
          <internalNodes>
            0 -1 190 5.5856225080788136e-03</internalNodes>
          <leafValues>
            -1.9727149605751038e-01 2.1915009617805481e-01</leafValues></_>
        <_>
          <internalNodes>
            0 -1 336 3.3089358359575272e-02</internalNodes>
          <leafValues>
            -7.6408535242080688e-02 5.6558966636657715e-01</leafValues></_>
        <_>
          <internalNodes>
            0 -1 182 1.7506030853837729e-03</internalNodes>
          <leafValues>
            -1.4728647470474243e-01 2.8343835473060608e-01</leafValues></_>
        <_>
          <internalNodes>
            0 -1 318 2.3962870240211487e-02</internalNodes>
          <leafValues>
            -5.6266415864229202e-02 6.8063431978225708e-01</leafValues></_>
        <_>
          <internalNodes>
            0 -1 522 -2.7603815397014841e-05</internalNodes>
          <leafValues>
            2.0587167143821716e-01 -1.9528602063655853e-01</leafValues></_>
        <_>
          <internalNodes>
            0 -1 99 -1.2236175686120987e-01</internalNodes>
          <leafValues>
            5.7496154308319092e-01 -7.3468014597892761e-02</leafValues></_></weakClassifiers></_>
    <!-- stage 13 -->
    <_>
      <maxWeakCount>34</maxWeakCount>
      <stageThreshold>-1.5824421644210815e+00</stageThreshold>
      <weakClassifiers>
        <_>
          <internalNodes>
            0 -1 202 5.5305771529674530e-03</internalNodes>
          <leafValues>
            -6.6646987199783325e-01 -1.6998012363910675e-01</leafValues></_>
        <_>
          <internalNodes>
            0 -1 518 -2.1381769329309464e-03</internalNodes>
          <leafValues>
            3.2151421904563904e-01 -2.5198486447334290e-01</leafValues></_>
        <_>
          <internalNodes>
            0 -1 284 4.2237685993313789e-03</internalNodes>
          <leafValues>
            -2.8694516420364380e-01 2.2203251719474792e-01</leafValues></_>
        <_>
          <internalNodes>
            0 -1 58 -1.0069584473967552e-02</internalNodes>
          <leafValues>
            -5.7616639137268066e-01 8.7238773703575134e-02</leafValues></_>
        <_>
          <internalNodes>
            0 -1 376 -3.7616718327626586e-04</internalNodes>
          <leafValues>
            -4.6921321749687195e-01 1.3325604796409607e-01</leafValues></_>
        <_>
          <internalNodes>
            0 -1 164 2.2994792088866234e-03</internalNodes>
          <leafValues>
            -1.2298160046339035e-01 3.5886290669441223e-01</leafValues></_>
        <_>
          <internalNodes>
            0 -1 376 1.9371855887584388e-04</internalNodes>
          <leafValues>
            1.2845399975776672e-01 -3.8985264301300049e-01</leafValues></_>
        <_>
          <internalNodes>
            0 -1 22 -8.2348957657814026e-03</internalNodes>
          <leafValues>
            3.4037929773330688e-01 -1.3620001077651978e-01</leafValues></_>
        <_>
          <internalNodes>
            0 -1 256 -2.0460203289985657e-02</internalNodes>
          <leafValues>
            -4.9174660444259644e-01 8.9147724211215973e-02</leafValues></_>
        <_>
          <internalNodes>
            0 -1 394 6.8891746923327446e-03</internalNodes>
          <leafValues>
            -2.1433725953102112e-01 2.5274911522865295e-01</leafValues></_>
        <_>
          <internalNodes>
            0 -1 419 1.4770099893212318e-02</internalNodes>
          <leafValues>
            4.7322820872068405e-02 -8.5831683874130249e-01</leafValues></_>
        <_>
          <internalNodes>
            0 -1 184 1.1862469837069511e-02</internalNodes>
          <leafValues>
            8.5380271077156067e-02 -4.2700126767158508e-01</leafValues></_>
        <_>
          <internalNodes>
            0 -1 366 -7.7910032123327255e-03</internalNodes>
          <leafValues>
            3.8929650187492371e-01 -1.0712379962205887e-01</leafValues></_>
        <_>
          <internalNodes>
            0 -1 361 -4.2306222021579742e-03</internalNodes>
          <leafValues>
            2.1878170967102051e-01 -2.1465371549129486e-01</leafValues></_>
        <_>
          <internalNodes>
            0 -1 349 1.7847046256065369e-02</internalNodes>
          <leafValues>
            -1.4383569359779358e-01 3.0997616052627563e-01</leafValues></_>
        <_>
          <internalNodes>
            0 -1 54 -4.7270685434341431e-02</internalNodes>
          <leafValues>
            3.3827528357505798e-01 -1.2438505142927170e-01</leafValues></_>
        <_>
          <internalNodes>
            0 -1 337 5.3253201767802238e-03</internalNodes>
          <leafValues>
            -1.4828500151634216e-01 3.1247305870056152e-01</leafValues></_>
        <_>
          <internalNodes>
            0 -1 239 -5.6303255259990692e-03</internalNodes>
          <leafValues>
            3.3342722058296204e-01 -1.3630998134613037e-01</leafValues></_>
        <_>
          <internalNodes>
            0 -1 17 -1.1449432000517845e-02</internalNodes>
          <leafValues>
            3.0573725700378418e-01 -1.4670331776142120e-01</leafValues></_>
        <_>
          <internalNodes>
            0 -1 389 -5.8167517185211182e-02</internalNodes>
          <leafValues>
            3.6245790123939514e-01 -1.2877885997295380e-01</leafValues></_>
        <_>
          <internalNodes>
            0 -1 380 9.9879644811153412e-02</internalNodes>
          <leafValues>
            -1.3329982757568359e-01 3.2049778103828430e-01</leafValues></_>
        <_>
          <internalNodes>
            0 -1 278 5.0632720813155174e-03</internalNodes>
          <leafValues>
            6.9903716444969177e-02 -5.0254726409912109e-01</leafValues></_>
        <_>
          <internalNodes>
            0 -1 308 3.7824965547770262e-03</internalNodes>
          <leafValues>
            -9.3433618545532227e-02 4.2490395903587341e-01</leafValues></_>
        <_>
          <internalNodes>
            0 -1 263 -2.2886035731062293e-04</internalNodes>
          <leafValues>
            -2.9951742291450500e-01 1.2888728082180023e-01</leafValues></_>
        <_>
          <internalNodes>
            0 -1 189 -1.8534421920776367e-02</internalNodes>
          <leafValues>
            3.7125638127326965e-01 -9.4648711383342743e-02</leafValues></_>
        <_>
          <internalNodes>
            0 -1 46 -2.4461697041988373e-01</internalNodes>
          <leafValues>
            4.5841839909553528e-01 -9.8782874643802643e-02</leafValues></_>
        <_>
          <internalNodes>
            0 -1 440 -9.0523678809404373e-03</internalNodes>
          <leafValues>
            -6.9636964797973633e-01 5.8754026889801025e-02</leafValues></_>
        <_>
          <internalNodes>
            0 -1 323 -5.2939012646675110e-02</internalNodes>
          <leafValues>
            -6.7653053998947144e-01 5.0407912582159042e-02</leafValues></_>
        <_>
          <internalNodes>
            0 -1 265 -5.5251093581318855e-03</internalNodes>
          <leafValues>
            1.4835081994533539e-01 -2.6965928077697754e-01</leafValues></_>
        <_>
          <internalNodes>
            0 -1 170 -3.7859246134757996e-02</internalNodes>
          <leafValues>
            -4.5744132995605469e-01 8.1979230046272278e-02</leafValues></_>
        <_>
          <internalNodes>
            0 -1 84 1.6293730586767197e-02</internalNodes>
          <leafValues>
            -1.4714704453945160e-01 2.7462649345397949e-01</leafValues></_>
        <_>
          <internalNodes>
            0 -1 154 -1.4562945812940598e-02</internalNodes>
          <leafValues>
            2.1399824321269989e-01 -2.0215694606304169e-01</leafValues></_>
        <_>
          <internalNodes>
            0 -1 240 -2.7569907251745462e-04</internalNodes>
          <leafValues>
            -3.6548581719398499e-01 1.1203240603208542e-01</leafValues></_>
        <_>
          <internalNodes>
            0 -1 194 -7.2867339476943016e-03</internalNodes>
          <leafValues>
            -4.1215214133262634e-01 9.1771282255649567e-02</leafValues></_></weakClassifiers></_>
    <!-- stage 14 -->
    <_>
      <maxWeakCount>37</maxWeakCount>
      <stageThreshold>-1.6806179285049438e+00</stageThreshold>
      <weakClassifiers>
        <_>
          <internalNodes>
            0 -1 281 -2.8940439224243164e-02</internalNodes>
          <leafValues>
            -1.0707070678472519e-01 -6.2349933385848999e-01</leafValues></_>
        <_>
          <internalNodes>
            0 -1 220 9.6800681203603745e-03</internalNodes>
          <leafValues>
            -2.6057136058807373e-01 2.7892664074897766e-01</leafValues></_>
        <_>
          <internalNodes>
            0 -1 508 -1.7521998379379511e-03</internalNodes>
          <leafValues>
            2.7213960886001587e-01 -2.4135245382785797e-01</leafValues></_>
        <_>
          <internalNodes>
            0 -1 429 -5.1235049962997437e-02</internalNodes>
          <leafValues>
            5.7965219020843506e-01 -8.2566149532794952e-02</leafValues></_>
        <_>
          <internalNodes>
            0 -1 393 1.7190491780638695e-03</internalNodes>
          <leafValues>
            -1.9932374358177185e-01 2.2941567003726959e-01</leafValues></_>
        <_>
          <internalNodes>
            0 -1 143 1.8680866807699203e-02</internalNodes>
          <leafValues>
            9.8011858761310577e-02 -4.7501358389854431e-01</leafValues></_>
        <_>
          <internalNodes>
            0 -1 422 1.1868869187310338e-03</internalNodes>
          <leafValues>
            -2.0683148503303528e-01 2.1565553545951843e-01</leafValues></_>
        <_>
          <internalNodes>
            0 -1 222 -6.3157491385936737e-02</internalNodes>
          <leafValues>
            5.7851517200469971e-01 -5.3573977202177048e-02</leafValues></_>
        <_>
          <internalNodes>
            0 -1 365 4.4127374887466431e-02</internalNodes>
          <leafValues>
            7.9598054289817810e-02 -5.4706764221191406e-01</leafValues></_>
        <_>
          <internalNodes>
            0 -1 276 3.5407184623181820e-03</internalNodes>
          <leafValues>
            -9.7755305469036102e-02 4.4109839200973511e-01</leafValues></_>
        <_>
          <internalNodes>
            0 -1 93 1.5050747897475958e-03</internalNodes>
          <leafValues>
            8.4978736937046051e-02 -4.6161517500877380e-01</leafValues></_>
        <_>
          <internalNodes>
            0 -1 229 -2.3587919771671295e-02</internalNodes>
          <leafValues>
            -4.1264790296554565e-01 9.8381340503692627e-02</leafValues></_>
        <_>
          <internalNodes>
            0 -1 19 -5.3544312715530396e-02</internalNodes>
          <leafValues>
            -3.6403962969779968e-01 1.1114540696144104e-01</leafValues></_>
        <_>
          <internalNodes>
            0 -1 161 2.5630025193095207e-03</internalNodes>
          <leafValues>
            -1.8231618404388428e-01 2.2252909839153290e-01</leafValues></_>
        <_>
          <internalNodes>
            0 -1 53 -7.0708781480789185e-02</internalNodes>
          <leafValues>
            4.4150739908218384e-01 -1.0124412924051285e-01</leafValues></_>
        <_>
          <internalNodes>
            0 -1 91 -2.7588389348238707e-03</internalNodes>
          <leafValues>
            3.3593383431434631e-01 -1.1972991377115250e-01</leafValues></_>
        <_>
          <internalNodes>
            0 -1 245 3.5573373315855861e-04</internalNodes>
          <leafValues>
            8.2889288663864136e-02 -5.1427364349365234e-01</leafValues></_>
        <_>
          <internalNodes>
            0 -1 319 4.0757246315479279e-02</internalNodes>
          <leafValues>
            7.1350157260894775e-02 -5.3740400075912476e-01</leafValues></_>
        <_>
          <internalNodes>
            0 -1 430 2.1069977083243430e-04</internalNodes>
          <leafValues>
            1.1981379985809326e-01 -3.1353485584259033e-01</leafValues></_>
        <_>
          <internalNodes>
            0 -1 90 3.3741793595254421e-03</internalNodes>
          <leafValues>
            -8.9134640991687775e-02 4.3680936098098755e-01</leafValues></_>
        <_>
          <internalNodes>
            0 -1 107 6.0049938037991524e-03</internalNodes>
          <leafValues>
            5.0805646926164627e-02 -7.6372486352920532e-01</leafValues></_>
        <_>
          <internalNodes>
            0 -1 251 -2.5060128420591354e-02</internalNodes>
          <leafValues>
            2.2593583166599274e-01 -1.7849108576774597e-01</leafValues></_>
        <_>
          <internalNodes>
            0 -1 459 -2.3369794711470604e-02</internalNodes>
          <leafValues>
            6.0837864875793457e-01 -5.7272616773843765e-02</leafValues></_>
        <_>
          <internalNodes>
            0 -1 445 2.7112881070934236e-05</internalNodes>
          <leafValues>
            -2.6019564270973206e-01 1.5452314913272858e-01</leafValues></_>
        <_>
          <internalNodes>
            0 -1 158 5.0384216010570526e-02</internalNodes>
          <leafValues>
            6.8509295582771301e-02 -5.2727860212326050e-01</leafValues></_>
        <_>
          <internalNodes>
            0 -1 40 2.5648299604654312e-02</internalNodes>
          <leafValues>
            3.9552703499794006e-02 -7.7135097980499268e-01</leafValues></_>
        <_>
          <internalNodes>
            0 -1 38 -1.2667185068130493e-01</internalNodes>
          <leafValues>
            -5.3953593969345093e-01 5.5379711091518402e-02</leafValues></_>
        <_>
          <internalNodes>
            0 -1 49 -1.1414334923028946e-01</internalNodes>
          <leafValues>
            -6.3770371675491333e-01 5.5065900087356567e-02</leafValues></_>
        <_>
          <internalNodes>
            0 -1 60 -2.5243707932531834e-03</internalNodes>
          <leafValues>
            -5.4165297746658325e-01 5.6840207427740097e-02</leafValues></_>
        <_>
          <internalNodes>
            0 -1 331 4.4686928391456604e-02</internalNodes>
          <leafValues>
            8.4478661417961121e-02 -4.1150087118148804e-01</leafValues></_>
        <_>
          <internalNodes>
            0 -1 67 -9.7523815929889679e-02</internalNodes>
          <leafValues>
            6.7492181062698364e-01 -6.1799570918083191e-02</leafValues></_>
        <_>
          <internalNodes>
            0 -1 142 2.3628913331776857e-03</internalNodes>
          <leafValues>
            -1.7106899619102478e-01 2.1255238354206085e-01</leafValues></_>
        <_>
          <internalNodes>
            0 -1 176 -7.4692383408546448e-02</internalNodes>
          <leafValues>
            7.5231879949569702e-01 -5.6337364017963409e-02</leafValues></_>
        <_>
          <internalNodes>
            0 -1 501 -1.1677098460495472e-02</internalNodes>
          <leafValues>
            -5.2555239200592041e-01 7.7791750431060791e-02</leafValues></_>
        <_>
          <internalNodes>
            0 -1 405 1.3256691454444081e-04</internalNodes>
          <leafValues>
            1.3513334095478058e-01 -2.6078802347183228e-01</leafValues></_>
        <_>
          <internalNodes>
            0 -1 145 2.0020240917801857e-03</internalNodes>
          <leafValues>
            -1.1344430595636368e-01 3.3989578485488892e-01</leafValues></_>
        <_>
          <internalNodes>
            0 -1 65 -9.4176512211561203e-03</internalNodes>
          <leafValues>
            1.6196571290493011e-01 -2.2001507878303528e-01</leafValues></_></weakClassifiers></_>
    <!-- stage 15 -->
    <_>
      <maxWeakCount>38</maxWeakCount>
      <stageThreshold>-1.6420631408691406e+00</stageThreshold>
      <weakClassifiers>
        <_>
          <internalNodes>
            0 -1 234 -8.4010828286409378e-03</internalNodes>
          <leafValues>
            -2.2577777504920959e-01 -6.6412699222564697e-01</leafValues></_>
        <_>
          <internalNodes>
            0 -1 492 -7.0217653410509229e-04</internalNodes>
          <leafValues>
            2.5937369465827942e-01 -2.5313815474510193e-01</leafValues></_>
        <_>
          <internalNodes>
            0 -1 338 -9.0713903773576021e-04</internalNodes>
          <leafValues>
            -4.7316011786460876e-01 1.0218056291341782e-01</leafValues></_>
        <_>
          <internalNodes>
            0 -1 338 1.4812451554462314e-03</internalNodes>
          <leafValues>
            1.5329043567180634e-01 -3.7794649600982666e-01</leafValues></_>
        <_>
          <internalNodes>
            0 -1 105 3.1639824155718088e-03</internalNodes>
          <leafValues>
            -2.3706634342670441e-01 1.8600058555603027e-01</leafValues></_>
        <_>
          <internalNodes>
            0 -1 219 2.0119342952966690e-03</internalNodes>
          <leafValues>
            -2.1209150552749634e-01 2.2973701357841492e-01</leafValues></_>
        <_>
          <internalNodes>
            0 -1 160 -1.4293098822236061e-02</internalNodes>
          <leafValues>
            5.3233414888381958e-01 -8.2881279289722443e-02</leafValues></_>
        <_>
          <internalNodes>
            0 -1 465 3.7346417084336281e-03</internalNodes>
          <leafValues>
            -1.0388864576816559e-01 3.8071915507316589e-01</leafValues></_>
        <_>
          <internalNodes>
            0 -1 171 1.2834886088967323e-02</internalNodes>
          <leafValues>
            4.2347785085439682e-02 -8.9921146631240845e-01</leafValues></_>
        <_>
          <internalNodes>
            0 -1 471 -9.8664464894682169e-04</internalNodes>
          <leafValues>
            4.1562059521675110e-01 -1.0022094100713730e-01</leafValues></_>
        <_>
          <internalNodes>
            0 -1 444 -1.9408700754866004e-03</internalNodes>
          <leafValues>
            -4.6357297897338867e-01 8.7202295660972595e-02</leafValues></_>
        <_>
          <internalNodes>
            0 -1 514 2.9163982719182968e-02</internalNodes>
          <leafValues>
            -1.5778377652168274e-01 2.5192534923553467e-01</leafValues></_>
        <_>
          <internalNodes>
            0 -1 68 -2.1573379635810852e-02</internalNodes>
          <leafValues>
            2.9726511240005493e-01 -1.5778926014900208e-01</leafValues></_>
        <_>
          <internalNodes>
            0 -1 27 8.7292501702904701e-03</internalNodes>
          <leafValues>
            -9.1258667409420013e-02 4.3254080414772034e-01</leafValues></_>
        <_>
          <internalNodes>
            0 -1 34 2.0571008324623108e-02</internalNodes>
          <leafValues>
            -1.4773909747600555e-01 2.7807125449180603e-01</leafValues></_>
        <_>
          <internalNodes>
            0 -1 3 1.0176100768148899e-02</internalNodes>
          <leafValues>
            9.1701947152614594e-02 -4.3623146414756775e-01</leafValues></_>
        <_>
          <internalNodes>
            0 -1 428 -1.2977031059563160e-02</internalNodes>
          <leafValues>
            5.1437246799468994e-01 -8.4316171705722809e-02</leafValues></_>
        <_>
          <internalNodes>
            0 -1 227 -1.7187951132655144e-02</internalNodes>
          <leafValues>
            4.4147670269012451e-01 -7.4695505201816559e-02</leafValues></_>
        <_>
          <internalNodes>
            0 -1 21 -2.3727882653474808e-02</internalNodes>
          <leafValues>
            2.7224460244178772e-01 -1.5191668272018433e-01</leafValues></_>
        <_>
          <internalNodes>
            0 -1 233 -1.0815725545398891e-04</internalNodes>
          <leafValues>
            -3.5727503895759583e-01 1.0859184712171555e-01</leafValues></_>
        <_>
          <internalNodes>
            0 -1 132 -1.7509935423731804e-02</internalNodes>
          <leafValues>
            4.1972425580024719e-01 -9.0288177132606506e-02</leafValues></_>
        <_>
          <internalNodes>
            0 -1 231 1.1619476601481438e-02</internalNodes>
          <leafValues>
            9.7970709204673767e-02 -4.6570822596549988e-01</leafValues></_>
        <_>
          <internalNodes>
            0 -1 304 2.1340348757803440e-03</internalNodes>
          <leafValues>
            -3.2491773366928101e-01 1.1244373023509979e-01</leafValues></_>
        <_>
          <internalNodes>
            0 -1 30 2.9984724521636963e-01</internalNodes>
          <leafValues>
            -7.8415468335151672e-02 5.2991384267807007e-01</leafValues></_>
        <_>
          <internalNodes>
            0 -1 404 -4.6209130436182022e-02</internalNodes>
          <leafValues>
            3.8998422026634216e-01 -1.0467151552438736e-01</leafValues></_>
        <_>
          <internalNodes>
            0 -1 504 2.6480564847588539e-03</internalNodes>
          <leafValues>
            -1.1655166745185852e-01 3.0172351002693176e-01</leafValues></_>
        <_>
          <internalNodes>
            0 -1 424 1.4552974607795477e-04</internalNodes>
          <leafValues>
            1.1146054416894913e-01 -3.0191597342491150e-01</leafValues></_>
        <_>
          <internalNodes>
            0 -1 274 -5.9142969548702240e-03</internalNodes>
          <leafValues>
            1.9093117117881775e-01 -1.8804423511028290e-01</leafValues></_>
        <_>
          <internalNodes>
            0 -1 277 2.9073706828057766e-03</internalNodes>
          <leafValues>
            -9.1334559023380280e-02 3.6445683240890503e-01</leafValues></_>
        <_>
          <internalNodes>
            0 -1 86 -1.9184566335752606e-03</internalNodes>
          <leafValues>
            3.0276942253112793e-01 -1.1000684648752213e-01</leafValues></_>
        <_>
          <internalNodes>
            0 -1 414 -9.2285238206386566e-03</internalNodes>
          <leafValues>
            -4.7235557436943054e-01 7.4505023658275604e-02</leafValues></_>
        <_>
          <internalNodes>
            0 -1 449 3.3202748454641551e-05</internalNodes>
          <leafValues>
            -2.2525209188461304e-01 1.4188686013221741e-01</leafValues></_>
        <_>
          <internalNodes>
            0 -1 15 -3.8550496101379395e-02</internalNodes>
          <leafValues>
            4.5849993824958801e-01 -7.8854709863662720e-02</leafValues></_>
        <_>
          <internalNodes>
            0 -1 451 1.5830501797609031e-04</internalNodes>
          <leafValues>
            1.1871615797281265e-01 -3.2791689038276672e-01</leafValues></_>
        <_>
          <internalNodes>
            0 -1 124 -2.2912626154720783e-03</internalNodes>
          <leafValues>
            2.2691731154918671e-01 -1.6719274222850800e-01</leafValues></_>
        <_>
          <internalNodes>
            0 -1 41 -4.9933530390262604e-02</internalNodes>
          <leafValues>
            3.7110671401023865e-01 -9.5848582684993744e-02</leafValues></_>
        <_>
          <internalNodes>
            0 -1 453 4.1121890535578132e-04</internalNodes>
          <leafValues>
            -1.8270918726921082e-01 1.8706589937210083e-01</leafValues></_>
        <_>
          <internalNodes>
            0 -1 511 -6.8628592416644096e-03</internalNodes>
          <leafValues>
            -6.3906943798065186e-01 5.3656771779060364e-02</leafValues></_></weakClassifiers></_>
    <!-- stage 16 -->
    <_>
      <maxWeakCount>37</maxWeakCount>
      <stageThreshold>-1.5762807130813599e+00</stageThreshold>
      <weakClassifiers>
        <_>
          <internalNodes>
            0 -1 432 -3.1487629748880863e-03</internalNodes>
          <leafValues>
            -5.9891108423471451e-02 -5.8957654237747192e-01</leafValues></_>
        <_>
          <internalNodes>
            0 -1 173 1.3202270492911339e-03</internalNodes>
          <leafValues>
            -3.3907768130302429e-01 1.6006676852703094e-01</leafValues></_>
        <_>
          <internalNodes>
            0 -1 315 -1.0956702753901482e-02</internalNodes>
          <leafValues>
            2.1463143825531006e-01 -2.3885028064250946e-01</leafValues></_>
        <_>
          <internalNodes>
            0 -1 250 -2.4980679154396057e-02</internalNodes>
          <leafValues>
            2.6329499483108521e-01 -1.7250385880470276e-01</leafValues></_>
        <_>
          <internalNodes>
            0 -1 122 2.8241220861673355e-03</internalNodes>
          <leafValues>
            -7.4441559612751007e-02 4.2353263497352600e-01</leafValues></_>
        <_>
          <internalNodes>
            0 -1 205 2.6478352025151253e-02</internalNodes>
          <leafValues>
            6.8970210850238800e-02 -5.7492411136627197e-01</leafValues></_>
        <_>
          <internalNodes>
            0 -1 436 -3.0392112676054239e-03</internalNodes>
          <leafValues>
            -7.7559441328048706e-01 5.9520196169614792e-02</leafValues></_>
        <_>
          <internalNodes>
            0 -1 294 -3.5266295075416565e-02</internalNodes>
          <leafValues>
            6.7813676595687866e-01 -8.8204011321067810e-02</leafValues></_>
        <_>
          <internalNodes>
            0 -1 439 -3.8181031122803688e-03</internalNodes>
          <leafValues>
            5.2103799581527710e-01 -5.2285950630903244e-02</leafValues></_>
        <_>
          <internalNodes>
            0 -1 178 8.1029534339904785e-03</internalNodes>
          <leafValues>
            6.6266655921936035e-02 -6.5857058763504028e-01</leafValues></_>
        <_>
          <internalNodes>
            0 -1 26 -1.1953933164477348e-02</internalNodes>
          <leafValues>
            -6.1817210912704468e-01 3.2529398798942566e-02</leafValues></_>
        <_>
          <internalNodes>
            0 -1 458 1.8302492797374725e-02</internalNodes>
          <leafValues>
            -1.1777322739362717e-01 3.2649305462837219e-01</leafValues></_>
        <_>
          <internalNodes>
            0 -1 140 1.9030144438147545e-02</internalNodes>
          <leafValues>
            6.7775584757328033e-02 -4.9713101983070374e-01</leafValues></_>
        <_>
          <internalNodes>
            0 -1 0 -5.2242772653698921e-03</internalNodes>
          <leafValues>
            -4.8702809214591980e-01 8.3994857966899872e-02</leafValues></_>
        <_>
          <internalNodes>
            0 -1 123 -1.6315089305862784e-03</internalNodes>
          <leafValues>
            2.6297163963317871e-01 -1.4364911615848541e-01</leafValues></_>
        <_>
          <internalNodes>
            0 -1 73 -3.8431711494922638e-02</internalNodes>
          <leafValues>
            4.6925777196884155e-01 -8.4206387400627136e-02</leafValues></_>
        <_>
          <internalNodes>
            0 -1 2 2.0359172485768795e-03</internalNodes>
          <leafValues>
            8.6166076362133026e-02 -3.9738297462463379e-01</leafValues></_>
        <_>
          <internalNodes>
            0 -1 425 -3.1500095501542091e-03</internalNodes>
          <leafValues>
            2.4963812530040741e-01 -1.3665445148944855e-01</leafValues></_>
        <_>
          <internalNodes>
            0 -1 94 3.5525453276932240e-03</internalNodes>
          <leafValues>
            4.8702318221330643e-02 -6.9070678949356079e-01</leafValues></_>
        <_>
          <internalNodes>
            0 -1 352 1.8787849694490433e-03</internalNodes>
          <leafValues>
            -9.5041885972023010e-02 4.0167620778083801e-01</leafValues></_>
        <_>
          <internalNodes>
            0 -1 288 1.2988214148208499e-03</internalNodes>
          <leafValues>
            7.8489117324352264e-02 -4.6652278304100037e-01</leafValues></_>
        <_>
          <internalNodes>
            0 -1 433 -1.3948035302746575e-05</internalNodes>
          <leafValues>
            1.6273519396781921e-01 -2.1769484877586365e-01</leafValues></_>
        <_>
          <internalNodes>
            0 -1 456 -3.2683990895748138e-02</internalNodes>
          <leafValues>
            3.0537244677543640e-01 -1.1667136847972870e-01</leafValues></_>
        <_>
          <internalNodes>
            0 -1 218 -6.6859908401966095e-03</internalNodes>
          <leafValues>
            2.0477920770645142e-01 -1.7005227506160736e-01</leafValues></_>
        <_>
          <internalNodes>
            0 -1 290 1.4925675932317972e-03</internalNodes>
          <leafValues>
            -7.7878467738628387e-02 4.4812169671058655e-01</leafValues></_>
        <_>
          <internalNodes>
            0 -1 18 -2.2379586473107338e-02</internalNodes>
          <leafValues>
            2.4774362146854401e-01 -1.3981626927852631e-01</leafValues></_>
        <_>
          <internalNodes>
            0 -1 128 1.2021359056234360e-02</internalNodes>
          <leafValues>
            4.0315646678209305e-02 -8.3879011869430542e-01</leafValues></_>
        <_>
          <internalNodes>
            0 -1 255 3.7388228811323643e-03</internalNodes>
          <leafValues>
            -1.2810629606246948e-01 2.9089030623435974e-01</leafValues></_>
        <_>
          <internalNodes>
            0 -1 324 3.2314822077751160e-02</internalNodes>
          <leafValues>
            7.8066192567348480e-02 -4.2073068022727966e-01</leafValues></_>
        <_>
          <internalNodes>
            0 -1 298 -6.7807827144861221e-03</internalNodes>
          <leafValues>
            3.4582796692848206e-01 -8.8089659810066223e-02</leafValues></_>
        <_>
          <internalNodes>
            0 -1 302 -1.8426631868351251e-04</internalNodes>
          <leafValues>
            -3.3275359869003296e-01 1.2081021070480347e-01</leafValues></_>
        <_>
          <internalNodes>
            0 -1 228 1.4943175017833710e-02</internalNodes>
          <leafValues>
            3.7273831665515900e-02 -7.6861912012100220e-01</leafValues></_>
        <_>
          <internalNodes>
            0 -1 309 2.3195650428533554e-03</internalNodes>
          <leafValues>
            -1.1834655702114105e-01 2.8725665807723999e-01</leafValues></_>
        <_>
          <internalNodes>
            0 -1 512 -6.7079020664095879e-04</internalNodes>
          <leafValues>
            -4.0830084681510925e-01 7.9566009342670441e-02</leafValues></_>
        <_>
          <internalNodes>
            0 -1 180 4.6605113893747330e-03</internalNodes>
          <leafValues>
            -9.8029792308807373e-02 3.4524357318878174e-01</leafValues></_>
        <_>
          <internalNodes>
            0 -1 174 2.7729305438697338e-03</internalNodes>
          <leafValues>
            -1.9941574335098267e-01 1.6043409705162048e-01</leafValues></_>
        <_>
          <internalNodes>
            0 -1 59 8.9940533041954041e-02</internalNodes>
          <leafValues>
            3.6281675100326538e-02 -8.3459162712097168e-01</leafValues></_></weakClassifiers></_>
    <!-- stage 17 -->
    <_>
      <maxWeakCount>36</maxWeakCount>
      <stageThreshold>-1.5238569974899292e+00</stageThreshold>
      <weakClassifiers>
        <_>
          <internalNodes>
            0 -1 279 -4.4271267950534821e-02</internalNodes>
          <leafValues>
            5.5934514850378036e-02 -5.6588816642761230e-01</leafValues></_>
        <_>
          <internalNodes>
            0 -1 467 1.6552680172026157e-03</internalNodes>
          <leafValues>
            -3.2828491926193237e-01 1.5211346745491028e-01</leafValues></_>
        <_>
          <internalNodes>
            0 -1 305 2.4010592605918646e-03</internalNodes>
          <leafValues>
            -3.0595231056213379e-01 1.6662190854549408e-01</leafValues></_>
        <_>
          <internalNodes>
            0 -1 45 -3.4663739800453186e-01</internalNodes>
          <leafValues>
            5.1939070224761963e-01 -8.4804996848106384e-02</leafValues></_>
        <_>
          <internalNodes>
            0 -1 103 6.9384887814521790e-02</internalNodes>
          <leafValues>
            -8.0598331987857819e-02 4.0111279487609863e-01</leafValues></_>
        <_>
          <internalNodes>
            0 -1 168 1.0686244349926710e-03</internalNodes>
          <leafValues>
            9.5377594232559204e-02 -4.2331671714782715e-01</leafValues></_>
        <_>
          <internalNodes>
            0 -1 209 1.0227559832856059e-03</internalNodes>
          <leafValues>
            -2.0121699571609497e-01 2.0394304394721985e-01</leafValues></_>
        <_>
          <internalNodes>
            0 -1 491 4.7022003680467606e-02</internalNodes>
          <leafValues>
            -1.0442183166742325e-01 4.3253561854362488e-01</leafValues></_>
        <_>
          <internalNodes>
            0 -1 384 -2.0253986120223999e-02</internalNodes>
          <leafValues>
            -4.5160487294197083e-01 8.3266168832778931e-02</leafValues></_>
        <_>
          <internalNodes>
            0 -1 397 -3.6703534424304962e-03</internalNodes>
          <leafValues>
            4.0198713541030884e-01 -9.0836383402347565e-02</leafValues></_>
        <_>
          <internalNodes>
            0 -1 346 9.0346706565469503e-04</internalNodes>
          <leafValues>
            -2.2212132811546326e-01 2.0919789373874664e-01</leafValues></_>
        <_>
          <internalNodes>
            0 -1 275 -2.5610256940126419e-02</internalNodes>
          <leafValues>
            -5.5574816465377808e-01 7.6302841305732727e-02</leafValues></_>
        <_>
          <internalNodes>
            0 -1 505 -2.1846906747668982e-03</internalNodes>
          <leafValues>
            2.0114602148532867e-01 -1.9010812044143677e-01</leafValues></_>
        <_>
          <internalNodes>
            0 -1 370 -1.5273180906660855e-04</internalNodes>
          <leafValues>
            -3.2050067186355591e-01 1.1984849721193314e-01</leafValues></_>
        <_>
          <internalNodes>
            0 -1 179 1.6545945778489113e-02</internalNodes>
          <leafValues>
            -9.4285629689693451e-02 4.2700582742691040e-01</leafValues></_>
        <_>
          <internalNodes>
            0 -1 312 -3.0787140130996704e-03</internalNodes>
          <leafValues>
            -5.7478970289230347e-01 6.5729603171348572e-02</leafValues></_>
        <_>
          <internalNodes>
            0 -1 258 -3.5659652203321457e-03</internalNodes>
          <leafValues>
            3.1733688712120056e-01 -1.0931944102048874e-01</leafValues></_>
        <_>
          <internalNodes>
            0 -1 5 -2.1144771575927734e-01</internalNodes>
          <leafValues>
            2.7948641777038574e-01 -1.3880763947963715e-01</leafValues></_>
        <_>
          <internalNodes>
            0 -1 74 2.2112127393484116e-02</internalNodes>
          <leafValues>
            -6.9922022521495819e-02 5.3833031654357910e-01</leafValues></_>
        <_>
          <internalNodes>
            0 -1 295 -7.3358248919248581e-03</internalNodes>
          <leafValues>
            3.8020816445350647e-01 -1.0101133584976196e-01</leafValues></_>
        <_>
          <internalNodes>
            0 -1 423 1.8692618235945702e-02</internalNodes>
          <leafValues>
            4.5602943748235703e-02 -7.6287686824798584e-01</leafValues></_>
        <_>
          <internalNodes>
            0 -1 476 -4.1048016399145126e-02</internalNodes>
          <leafValues>
            -9.4695204496383667e-01 2.2624507546424866e-02</leafValues></_>
        <_>
          <internalNodes>
            0 -1 177 6.4768008887767792e-02</internalNodes>
          <leafValues>
            -1.0513363033533096e-01 3.9086148142814636e-01</leafValues></_>
        <_>
          <internalNodes>
            0 -1 71 3.1114481389522552e-03</internalNodes>
          <leafValues>
            9.2250689864158630e-02 -3.5462561249732971e-01</leafValues></_>
        <_>
          <internalNodes>
            0 -1 296 6.8229876458644867e-02</internalNodes>
          <leafValues>
            3.2446499913930893e-02 -8.7771826982498169e-01</leafValues></_>
        <_>
          <internalNodes>
            0 -1 262 4.5876633375883102e-03</internalNodes>
          <leafValues>
            -8.9830048382282257e-02 3.8792848587036133e-01</leafValues></_>
        <_>
          <internalNodes>
            0 -1 260 -1.8585480749607086e-02</internalNodes>
          <leafValues>
            -4.2454478144645691e-01 7.9580843448638916e-02</leafValues></_>
        <_>
          <internalNodes>
            0 -1 120 1.8541106255725026e-03</internalNodes>
          <leafValues>
            -1.8623220920562744e-01 1.7446860671043396e-01</leafValues></_>
        <_>
          <internalNodes>
            0 -1 407 -4.9673631787300110e-02</internalNodes>
          <leafValues>
            -8.5654723644256592e-01 3.7942864000797272e-02</leafValues></_>
        <_>
          <internalNodes>
            0 -1 61 1.7079798504710197e-02</internalNodes>
          <leafValues>
            3.0489189550280571e-02 -7.3932588100433350e-01</leafValues></_>
        <_>
          <internalNodes>
            0 -1 88 1.0732086375355721e-02</internalNodes>
          <leafValues>
            6.1200045049190521e-02 -4.7184401750564575e-01</leafValues></_>
        <_>
          <internalNodes>
            0 -1 474 -3.5676481202244759e-03</internalNodes>
          <leafValues>
            -5.1624727249145508e-01 5.0671633332967758e-02</leafValues></_>
        <_>
          <internalNodes>
            0 -1 97 -8.1071128079202026e-05</internalNodes>
          <leafValues>
            -2.4129711091518402e-01 1.1594069004058838e-01</leafValues></_>
        <_>
          <internalNodes>
            0 -1 332 -2.5531664490699768e-02</internalNodes>
          <leafValues>
            4.9879592657089233e-01 -5.7836592197418213e-02</leafValues></_>
        <_>
          <internalNodes>
            0 -1 418 3.8581970147788525e-03</internalNodes>
          <leafValues>
            -1.9055813550949097e-01 1.8487434089183807e-01</leafValues></_>
        <_>
          <internalNodes>
            0 -1 499 3.1892783008515835e-03</internalNodes>
          <leafValues>
            5.7142712175846100e-02 -5.3213804960250854e-01</leafValues></_></weakClassifiers></_>
    <!-- stage 18 -->
    <_>
      <maxWeakCount>40</maxWeakCount>
      <stageThreshold>-1.5952826738357544e+00</stageThreshold>
      <weakClassifiers>
        <_>
          <internalNodes>
            0 -1 283 -8.4475111216306686e-03</internalNodes>
          <leafValues>
            -1.5873016417026520e-01 -6.3806378841400146e-01</leafValues></_>
        <_>
          <internalNodes>
            0 -1 421 3.0950387008488178e-04</internalNodes>
          <leafValues>
            -3.3901083469390869e-01 1.3143505156040192e-01</leafValues></_>
        <_>
          <internalNodes>
            0 -1 329 5.3827040828764439e-03</internalNodes>
          <leafValues>
            -2.2427210211753845e-01 1.8339714407920837e-01</leafValues></_>
        <_>
          <internalNodes>
            0 -1 374 -1.3800380111206323e-04</internalNodes>
          <leafValues>
            -3.5797286033630371e-01 1.1640925705432892e-01</leafValues></_>
        <_>
          <internalNodes>
            0 -1 374 1.2622472422663122e-04</internalNodes>
          <leafValues>
            1.9015827775001526e-01 -2.6548776030540466e-01</leafValues></_>
        <_>
          <internalNodes>
            0 -1 371 8.9010619558393955e-04</internalNodes>
          <leafValues>
            -1.2845677137374878e-01 3.7172606587409973e-01</leafValues></_>
        <_>
          <internalNodes>
            0 -1 153 5.3882248699665070e-02</internalNodes>
          <leafValues>
            6.8810909986495972e-02 -6.2478578090667725e-01</leafValues></_>
        <_>
          <internalNodes>
            0 -1 82 -1.2380357831716537e-01</internalNodes>
          <leafValues>
            5.9719967842102051e-01 -7.6209612190723419e-02</leafValues></_>
        <_>
          <internalNodes>
            0 -1 163 -2.5479083880782127e-02</internalNodes>
          <leafValues>
            -4.5789876580238342e-01 8.6869776248931885e-02</leafValues></_>
        <_>
          <internalNodes>
            0 -1 47 2.2003676742315292e-02</internalNodes>
          <leafValues>
            -1.7428219318389893e-01 2.3161393404006958e-01</leafValues></_>
        <_>
          <internalNodes>
            0 -1 398 1.2796637602150440e-03</internalNodes>
          <leafValues>
            -1.3189664483070374e-01 2.9784029722213745e-01</leafValues></_>
        <_>
          <internalNodes>
