<?xml version="1.0"?>
<opencv_storage>
<cascade>
  <stageType>BOOST</stageType>
  <featureType>HAAR</featureType>
  <height>24</height>
  <width>24</width>
  <stageParams>
    <boostType>GAB</boostType>
    <minHitRate>9.9500000476837158e-01</minHitRate>
    <maxFalseAlarm>5.0000000000000000e-01</maxFalseAlarm>
    <weightTrimRate>9.4999998807907104e-01</weightTrimRate>
    <maxDepth>1</maxDepth>
    <maxWeakCount>100</maxWeakCount></stageParams>
  <featureParams>
    <maxCatCount>0</maxCatCount>
    <featSize>1</featSize>
    <mode>BASIC</mode></featureParams>
  <stageNum>15</stageNum>
  <stages>
    <!-- stage 0 -->
    <_>
      <maxWeakCount>17</maxWeakCount>
      <stageThreshold>-1.7367416620254517e+00</stageThreshold>
      <weakClassifiers>
        <_>
          <internalNodes>
            0 -1 266 -2.8683692216873169e-02</internalNodes>
          <leafValues>
            6.2618690729141235e-01 -4.4311913847923279e-01</leafValues></_>
        <_>
          <internalNodes>
            0 -1 275 -2.5695199146866798e-02</internalNodes>
          <leafValues>
            5.9429901838302612e-01 -2.8572759032249451e-01</leafValues></_>
        <_>
          <internalNodes>
            0 -1 593 -7.0747989229857922e-03</internalNodes>
          <leafValues>
            4.5084235072135925e-01 -3.0757373571395874e-01</leafValues></_>
        <_>
          <internalNodes>
            0 -1 67 8.5194133222103119e-02</internalNodes>
          <leafValues>
            1.6937883198261261e-01 -7.8089958429336548e-01</leafValues></_>
        <_>
          <internalNodes>
            0 -1 262 -3.8796961307525635e-02</internalNodes>
          <leafValues>
            -6.9910615682601929e-01 1.8841557204723358e-01</leafValues></_>
        <_>
          <internalNodes>
            0 -1 191 2.2360250353813171e-02</internalNodes>
          <leafValues>
            -2.6786312460899353e-01 4.5843279361724854e-01</leafValues></_>
        <_>
          <internalNodes>
            0 -1 68 3.0558757483959198e-02</internalNodes>
          <leafValues>
            -1.1688036471605301e-01 6.5699231624603271e-01</leafValues></_>
        <_>
          <internalNodes>
            0 -1 416 2.7292000595480204e-03</internalNodes>
          <leafValues>
            -1.8070556223392487e-01 4.8679387569427490e-01</leafValues></_>
        <_>
          <internalNodes>
            0 -1 16 -2.6744624972343445e-01</internalNodes>
          <leafValues>
            5.1134806871414185e-01 -1.5424330532550812e-01</leafValues></_>
        <_>
          <internalNodes>
            0 -1 525 -2.5615054255467840e-05</internalNodes>
          <leafValues>
            2.8842061758041382e-01 -2.5557005405426025e-01</leafValues></_>
        <_>
          <internalNodes>
            0 -1 244 1.3949525356292725e-01</internalNodes>
          <leafValues>
            7.4472941458225250e-02 -8.7418514490127563e-01</leafValues></_>
        <_>
          <internalNodes>
            0 -1 548 -4.3693229556083679e-02</internalNodes>
          <leafValues>
            4.4264397025108337e-01 -1.5113335847854614e-01</leafValues></_>
        <_>
          <internalNodes>
            0 -1 461 -2.3964079446159303e-05</internalNodes>
          <leafValues>
            2.6888951659202576e-01 -2.3584689199924469e-01</leafValues></_>
        <_>
          <internalNodes>
            0 -1 316 -9.0372726321220398e-02</internalNodes>
          <leafValues>
            4.4152012467384338e-01 -1.4353822171688080e-01</leafValues></_>
        <_>
          <internalNodes>
            0 -1 88 3.3405162394046783e-02</internalNodes>
          <leafValues>
            -1.0553771257400513e-01 5.3682243824005127e-01</leafValues></_>
        <_>
          <internalNodes>
            0 -1 18 -5.2434127777814865e-02</internalNodes>
          <leafValues>
            3.4848973155021667e-01 -1.6517660021781921e-01</leafValues></_>
        <_>
          <internalNodes>
            0 -1 488 5.6278638541698456e-02</internalNodes>
          <leafValues>
            -9.6902079880237579e-02 6.0882192850112915e-01</leafValues></_></weakClassifiers></_>
    <!-- stage 1 -->
    <_>
      <maxWeakCount>26</maxWeakCount>
      <stageThreshold>-1.6344867944717407e+00</stageThreshold>
      <weakClassifiers>
        <_>
          <internalNodes>
            0 -1 620 -3.0705195385962725e-03</internalNodes>
          <leafValues>
            4.4657301902770996e-01 -4.3643441796302795e-01</leafValues></_>
        <_>
          <internalNodes>
            0 -1 235 9.9205486476421356e-03</internalNodes>
          <leafValues>
            -2.0743231475353241e-01 5.6423622369766235e-01</leafValues></_>
        <_>
          <internalNodes>
            0 -1 157 1.3389768078923225e-02</internalNodes>
          <leafValues>
            -1.8312998116016388e-01 4.9640572071075439e-01</leafValues></_>
        <_>
          <internalNodes>
            0 -1 215 -5.8930404484272003e-02</internalNodes>
          <leafValues>
            -7.0064926147460938e-01 1.3516362011432648e-01</leafValues></_>
        <_>
          <internalNodes>
            0 -1 229 2.2427303716540337e-02</internalNodes>
          <leafValues>
            1.8976910412311554e-01 -5.3831422328948975e-01</leafValues></_>
        <_>
          <internalNodes>
            0 -1 642 1.2829818842874374e-05</internalNodes>
          <leafValues>
            -2.6903402805328369e-01 2.9574328660964966e-01</leafValues></_>
        <_>
          <internalNodes>
            0 -1 190 -4.2537912726402283e-02</internalNodes>
          <leafValues>
            5.9237861633300781e-01 -1.1148143559694290e-01</leafValues></_>
        <_>
          <internalNodes>
            0 -1 430 -1.3571118870459031e-05</internalNodes>
          <leafValues>
            2.6944693922996521e-01 -2.4703730642795563e-01</leafValues></_>
        <_>
          <internalNodes>
            0 -1 355 6.8125911056995392e-02</internalNodes>
          <leafValues>
            5.4369710385799408e-02 -7.8659874200820923e-01</leafValues></_>
        <_>
          <internalNodes>
            0 -1 489 -4.6691946685314178e-02</internalNodes>
          <leafValues>
            4.0688404440879822e-01 -1.5523955225944519e-01</leafValues></_>
        <_>
          <internalNodes>
            0 -1 11 -8.4774687886238098e-02</internalNodes>
          <leafValues>
            3.4725686907768250e-01 -1.9670288264751434e-01</leafValues></_>
        <_>
          <internalNodes>
            0 -1 528 -1.4134078286588192e-02</internalNodes>
          <leafValues>
            5.9336364269256592e-01 -1.1337649077177048e-01</leafValues></_>
        <_>
          <internalNodes>
            0 -1 501 2.4151417164830491e-05</internalNodes>
          <leafValues>
            -2.2382879257202148e-01 2.8686681389808655e-01</leafValues></_>
        <_>
          <internalNodes>
            0 -1 158 3.2382018864154816e-02</internalNodes>
          <leafValues>
            -1.3144879043102264e-01 4.6915924549102783e-01</leafValues></_>
        <_>
          <internalNodes>
            0 -1 345 -2.3005967959761620e-03</internalNodes>
          <leafValues>
            -4.3420210480690002e-01 1.3518704473972321e-01</leafValues></_>
        <_>
          <internalNodes>
            0 -1 237 -8.4262482821941376e-02</internalNodes>
          <leafValues>
            4.1424453258514404e-01 -1.3148629665374756e-01</leafValues></_>
        <_>
          <internalNodes>
            0 -1 437 6.8744295276701450e-03</internalNodes>
          <leafValues>
            -1.2388595938682556e-01 4.0612900257110596e-01</leafValues></_>
        <_>
          <internalNodes>
            0 -1 183 7.5526889413595200e-03</internalNodes>
          <leafValues>
            1.0898590087890625e-01 -4.6540066599845886e-01</leafValues></_>
        <_>
          <internalNodes>
            0 -1 199 -1.5068879351019859e-02</internalNodes>
          <leafValues>
            5.6293016672134399e-01 -9.2340342700481415e-02</leafValues></_>
        <_>
          <internalNodes>
            0 -1 602 1.3196335203247145e-05</internalNodes>
          <leafValues>
            -2.0225140452384949e-01 2.1774646639823914e-01</leafValues></_>
        <_>
          <internalNodes>
            0 -1 93 1.0146842338144779e-02</internalNodes>
          <leafValues>
            7.6171092689037323e-02 -5.3007173538208008e-01</leafValues></_>
        <_>
          <internalNodes>
            0 -1 342 3.6996804177761078e-02</internalNodes>
          <leafValues>
            -8.4295347332954407e-02 5.8105415105819702e-01</leafValues></_>
        <_>
          <internalNodes>
            0 -1 427 -4.1295527480542660e-03</internalNodes>
          <leafValues>
            3.1917634606361389e-01 -1.4107133448123932e-01</leafValues></_>
        <_>
          <internalNodes>
            0 -1 22 -3.3181601762771606e-01</internalNodes>
          <leafValues>
            3.6028790473937988e-01 -1.1999104917049408e-01</leafValues></_>
        <_>
          <internalNodes>
            0 -1 459 1.3439084868878126e-03</internalNodes>
          <leafValues>
            1.0357186198234558e-01 -4.6417191624641418e-01</leafValues></_>
        <_>
          <internalNodes>
            0 -1 655 1.0669365292415023e-03</internalNodes>
          <leafValues>
            -1.3119097054004669e-01 3.5423022508621216e-01</leafValues></_></weakClassifiers></_>
    <!-- stage 2 -->
    <_>
      <maxWeakCount>35</maxWeakCount>
      <stageThreshold>-1.6782857179641724e+00</stageThreshold>
      <weakClassifiers>
        <_>
          <internalNodes>
            0 -1 271 -9.1291815042495728e-03</internalNodes>
          <leafValues>
            4.0558293461799622e-01 -4.3330615758895874e-01</leafValues></_>
        <_>
          <internalNodes>
            0 -1 233 -1.4060840010643005e-02</internalNodes>
          <leafValues>
            6.1031001806259155e-01 -2.0909111201763153e-01</leafValues></_>
        <_>
          <internalNodes>
            0 -1 584 -3.9471718482673168e-03</internalNodes>
          <leafValues>
            5.6817167997360229e-01 -1.5065345168113708e-01</leafValues></_>
        <_>
          <internalNodes>
            0 -1 41 -2.5773776695132256e-02</internalNodes>
          <leafValues>
            4.0651115775108337e-01 -1.7826728522777557e-01</leafValues></_>
        <_>
          <internalNodes>
            0 -1 298 -2.2506697103381157e-02</internalNodes>
          <leafValues>
            -6.6919374465942383e-01 8.9431129395961761e-02</leafValues></_>
        <_>
          <internalNodes>
            0 -1 519 -2.9524791985750198e-02</internalNodes>
          <leafValues>
            3.2094237208366394e-01 -1.8656761944293976e-01</leafValues></_>
        <_>
          <internalNodes>
            0 -1 19 -1.2853574752807617e-01</internalNodes>
          <leafValues>
            3.5201475024223328e-01 -1.7994490265846252e-01</leafValues></_>
        <_>
          <internalNodes>
            0 -1 646 1.3196335203247145e-05</internalNodes>
          <leafValues>
            -2.2519426047801971e-01 2.6566740870475769e-01</leafValues></_>
        <_>
          <internalNodes>
            0 -1 302 -1.0363375768065453e-02</internalNodes>
          <leafValues>
            5.9366583824157715e-01 -9.0681470930576324e-02</leafValues></_>
        <_>
          <internalNodes>
            0 -1 290 1.4582108633476309e-05</internalNodes>
          <leafValues>
            -2.1951849758625031e-01 2.3586027324199677e-01</leafValues></_>
        <_>
          <internalNodes>
            0 -1 152 -1.8895123153924942e-02</internalNodes>
          <leafValues>
            5.8238142728805542e-01 -8.1310234963893890e-02</leafValues></_>
        <_>
          <internalNodes>
            0 -1 260 -1.6313499145326205e-05</internalNodes>
          <leafValues>
            2.1887412667274475e-01 -2.6535391807556152e-01</leafValues></_>
        <_>
          <internalNodes>
            0 -1 410 5.6268610060214996e-03</internalNodes>
          <leafValues>
            1.1189338564872742e-01 -4.7572502493858337e-01</leafValues></_>
        <_>
          <internalNodes>
            0 -1 75 2.6343401521444321e-02</internalNodes>
          <leafValues>
            -1.6381107270717621e-01 2.9099714756011963e-01</leafValues></_>
        <_>
          <internalNodes>
            0 -1 317 -5.9452250599861145e-02</internalNodes>
          <leafValues>
            3.2492983341217041e-01 -1.7896114289760590e-01</leafValues></_>
        <_>
          <internalNodes>
            0 -1 611 -2.0438386127352715e-02</internalNodes>
          <leafValues>
            4.0023475885391235e-01 -1.4582093060016632e-01</leafValues></_>
        <_>
          <internalNodes>
            0 -1 503 -1.3413501903414726e-02</internalNodes>
          <leafValues>
            5.0516110658645630e-01 -9.3257732689380646e-02</leafValues></_>
        <_>
          <internalNodes>
            0 -1 331 -2.3637328296899796e-02</internalNodes>
          <leafValues>
            -3.5330820083618164e-01 1.1704934388399124e-01</leafValues></_>
        <_>
          <internalNodes>
            0 -1 646 -1.2351086297712754e-05</internalNodes>
          <leafValues>
            2.7259412407875061e-01 -1.4960666000843048e-01</leafValues></_>
        <_>
          <internalNodes>
            0 -1 397 7.0392228662967682e-02</internalNodes>
          <leafValues>
            5.0789963454008102e-02 -7.7625387907028198e-01</leafValues></_>
        <_>
          <internalNodes>
            0 -1 197 2.0520206540822983e-02</internalNodes>
          <leafValues>
            -1.2225835025310516e-01 3.5450670123100281e-01</leafValues></_>
        <_>
          <internalNodes>
            0 -1 238 3.2273944467306137e-02</internalNodes>
          <leafValues>
            -8.6189515888690948e-02 5.5630421638488770e-01</leafValues></_>
        <_>
          <internalNodes>
            0 -1 320 1.0869808495044708e-02</internalNodes>
          <leafValues>
            1.2773422896862030e-01 -3.4130036830902100e-01</leafValues></_>
        <_>
          <internalNodes>
            0 -1 277 -7.1627482771873474e-02</internalNodes>
          <leafValues>
            2.4646778404712677e-01 -1.5691204369068146e-01</leafValues></_>
        <_>
          <internalNodes>
            0 -1 442 2.5668610760476440e-05</internalNodes>
          <leafValues>
            -2.0115371048450470e-01 2.1969135105609894e-01</leafValues></_>
        <_>
          <internalNodes>
            0 -1 105 5.4142624139785767e-03</internalNodes>
          <leafValues>
            1.0517162084579468e-01 -3.5507324337959290e-01</leafValues></_>
        <_>
          <internalNodes>
            0 -1 619 1.4584680087864399e-02</internalNodes>
          <leafValues>
            -7.8256309032440186e-02 4.7142103314399719e-01</leafValues></_>
        <_>
          <internalNodes>
            0 -1 643 -2.3392958100885153e-03</internalNodes>
          <leafValues>
            1.9594086706638336e-01 -1.9704921543598175e-01</leafValues></_>
        <_>
          <internalNodes>
            0 -1 626 -1.1819051578640938e-02</internalNodes>
          <leafValues>
            -5.0498151779174805e-01 7.3103047907352448e-02</leafValues></_>
        <_>
          <internalNodes>
            0 -1 511 4.8252572305500507e-03</internalNodes>
          <leafValues>
            8.0947361886501312e-02 -4.0130367875099182e-01</leafValues></_>
        <_>
          <internalNodes>
            0 -1 420 1.2532706023193896e-05</internalNodes>
          <leafValues>
            -1.8439535796642303e-01 1.8857350945472717e-01</leafValues></_>
        <_>
          <internalNodes>
            0 -1 418 2.4557169526815414e-02</internalNodes>
          <leafValues>
            8.7329842150211334e-02 -4.2404407262802124e-01</leafValues></_>
        <_>
          <internalNodes>
            0 -1 628 -1.4051867648959160e-02</internalNodes>
          <leafValues>
            4.7353085875511169e-01 -7.8471317887306213e-02</leafValues></_>
        <_>
          <internalNodes>
            0 -1 5 6.1258045025169849e-04</internalNodes>
          <leafValues>
            1.4244575798511505e-01 -2.5502586364746094e-01</leafValues></_>
        <_>
          <internalNodes>
            0 -1 656 2.8507984243333340e-03</internalNodes>
          <leafValues>
            -9.8393186926841736e-02 3.6344516277313232e-01</leafValues></_></weakClassifiers></_>
    <!-- stage 3 -->
    <_>
      <maxWeakCount>38</maxWeakCount>
      <stageThreshold>-1.6542643308639526e+00</stageThreshold>
      <weakClassifiers>
        <_>
          <internalNodes>
            0 -1 365 -3.1470030546188354e-02</internalNodes>
          <leafValues>
            6.3147538900375366e-01 -3.8256981968879700e-01</leafValues></_>
        <_>
          <internalNodes>
            0 -1 411 -1.1082304641604424e-02</internalNodes>
          <leafValues>
            4.5578899979591370e-01 -2.1838888525962830e-01</leafValues></_>
        <_>
          <internalNodes>
            0 -1 51 -2.0563684403896332e-02</internalNodes>
          <leafValues>
            2.9273653030395508e-01 -3.2406753301620483e-01</leafValues></_>
        <_>
          <internalNodes>
            0 -1 554 -3.6481656134128571e-03</internalNodes>
          <leafValues>
            6.0252040624618530e-01 -1.1857468634843826e-01</leafValues></_>
        <_>
          <internalNodes>
            0 -1 119 1.1919001117348671e-02</internalNodes>
          <leafValues>
            -1.3908950984477997e-01 4.3987524509429932e-01</leafValues></_>
        <_>
          <internalNodes>
            0 -1 121 -1.0303417220711708e-02</internalNodes>
          <leafValues>
            4.2468023300170898e-01 -1.3512606918811798e-01</leafValues></_>
        <_>
          <internalNodes>
            0 -1 630 2.7333620935678482e-02</internalNodes>
          <leafValues>
            -1.3085298240184784e-01 4.1670754551887512e-01</leafValues></_>
        <_>
          <internalNodes>
            0 -1 281 6.3810953870415688e-03</internalNodes>
          <leafValues>
            -1.6662645339965820e-01 2.6615592837333679e-01</leafValues></_>
        <_>
          <internalNodes>
            0 -1 392 -1.8948290497064590e-02</internalNodes>
          <leafValues>
            3.8786846399307251e-01 -9.9656686186790466e-02</leafValues></_>
        <_>
          <internalNodes>
            0 -1 31 -9.6817523241043091e-02</internalNodes>
          <leafValues>
            3.2379841804504395e-01 -1.6533923149108887e-01</leafValues></_>
        <_>
          <internalNodes>
            0 -1 180 -3.1674973666667938e-02</internalNodes>
          <leafValues>
            -4.5026814937591553e-01 1.1226993054151535e-01</leafValues></_>
        <_>
          <internalNodes>
            0 -1 186 9.6205091103911400e-03</internalNodes>
          <leafValues>
            1.4392387866973877e-01 -3.5604619979858398e-01</leafValues></_>
        <_>
          <internalNodes>
            0 -1 162 6.3834171742200851e-03</internalNodes>
          <leafValues>
            -1.4156618714332581e-01 3.8056382536888123e-01</leafValues></_>
        <_>
          <internalNodes>
            0 -1 189 3.1551100313663483e-02</internalNodes>
          <leafValues>
            -8.5348881781101227e-02 4.0703576803207397e-01</leafValues></_>
        <_>
          <internalNodes>
            0 -1 476 2.4670522660017014e-02</internalNodes>
          <leafValues>
            -1.0704631358385086e-01 4.0945154428482056e-01</leafValues></_>
        <_>
          <internalNodes>
            0 -1 683 2.6897643692791462e-03</internalNodes>
          <leafValues>
            1.2869897484779358e-01 -3.2532039284706116e-01</leafValues></_>
        <_>
          <internalNodes>
            0 -1 285 5.2309811115264893e-02</internalNodes>
          <leafValues>
            7.7503904700279236e-02 -5.1517748832702637e-01</leafValues></_>
        <_>
          <internalNodes>
            0 -1 561 -3.0946661718189716e-03</internalNodes>
          <leafValues>
            5.9439563751220703e-01 -8.0796130001544952e-02</leafValues></_>
        <_>
          <internalNodes>
            0 -1 252 -3.7612877786159515e-02</internalNodes>
          <leafValues>
            -5.7374882698059082e-01 8.1806920468807220e-02</leafValues></_>
        <_>
          <internalNodes>
            0 -1 239 -1.2145761400461197e-02</internalNodes>
          <leafValues>
            5.8044075965881348e-01 -7.1583688259124756e-02</leafValues></_>
        <_>
          <internalNodes>
            0 -1 590 2.5123652449110523e-05</internalNodes>
          <leafValues>
            -1.8449127674102783e-01 1.9601717591285706e-01</leafValues></_>
        <_>
          <internalNodes>
            0 -1 557 -3.0521359294652939e-02</internalNodes>
          <leafValues>
            -6.2327784299850464e-01 6.1735812574625015e-02</leafValues></_>
        <_>
          <internalNodes>
            0 -1 622 4.7727059572935104e-03</internalNodes>
          <leafValues>
            -7.4104622006416321e-02 5.7215189933776855e-01</leafValues></_>
        <_>
          <internalNodes>
            0 -1 192 1.4270339161157608e-02</internalNodes>
          <leafValues>
            -1.0106734931468964e-01 3.1565743684768677e-01</leafValues></_>
        <_>
          <internalNodes>
            0 -1 418 1.2573196552693844e-02</internalNodes>
          <leafValues>
            1.0748884081840515e-01 -3.3178520202636719e-01</leafValues></_>
        <_>
          <internalNodes>
            0 -1 418 -5.8860488235950470e-02</internalNodes>
          <leafValues>
            -5.3345340490341187e-01 6.7462071776390076e-02</leafValues></_>
        <_>
          <internalNodes>
            0 -1 563 -1.3737363740801811e-02</internalNodes>
          <leafValues>
            4.4219064712524414e-01 -8.5809931159019470e-02</leafValues></_>
        <_>
          <internalNodes>
            0 -1 591 1.2485205843404401e-05</internalNodes>
          <leafValues>
            -1.7068228125572205e-01 1.9733673334121704e-01</leafValues></_>
        <_>
          <internalNodes>
            0 -1 116 -3.3929049968719482e-02</internalNodes>
          <leafValues>
            -6.2446796894073486e-01 5.1862146705389023e-02</leafValues></_>
        <_>
          <internalNodes>
            0 -1 309 -8.9462157338857651e-03</internalNodes>
          <leafValues>
            2.8209665417671204e-01 -1.1433450877666473e-01</leafValues></_>
        <_>
          <internalNodes>
            0 -1 639 2.2651487961411476e-03</internalNodes>
          <leafValues>
            6.1099473387002945e-02 -5.0387042760848999e-01</leafValues></_>
        <_>
          <internalNodes>
            0 -1 348 4.6545146033167839e-03</internalNodes>
          <leafValues>
            -7.9289212822914124e-02 4.1045564413070679e-01</leafValues></_>
        <_>
          <internalNodes>
            0 -1 685 1.7293511191383004e-03</internalNodes>
          <leafValues>
            1.0910320281982422e-01 -3.1705850362777710e-01</leafValues></_>
        <_>
          <internalNodes>
            0 -1 40 7.8344494104385376e-02</internalNodes>
          <leafValues>
            -6.8622350692749023e-02 4.7130137681961060e-01</leafValues></_>
        <_>
          <internalNodes>
            0 -1 72 -1.9831241667270660e-01</internalNodes>
          <leafValues>
            3.0944004654884338e-01 -9.9613420665264130e-02</leafValues></_>
        <_>
          <internalNodes>
            0 -1 167 1.5946511179208755e-02</internalNodes>
          <leafValues>
            -6.6837869584560394e-02 5.3241407871246338e-01</leafValues></_>
        <_>
          <internalNodes>
            0 -1 616 -2.5820307433605194e-02</internalNodes>
          <leafValues>
            3.5023498535156250e-01 -9.5244929194450378e-02</leafValues></_>
        <_>
          <internalNodes>
            0 -1 664 2.8274058422539383e-05</internalNodes>
          <leafValues>
            -1.7524789273738861e-01 1.9313797354698181e-01</leafValues></_></weakClassifiers></_>
    <!-- stage 4 -->
    <_>
      <maxWeakCount>46</maxWeakCount>
      <stageThreshold>-1.5800571441650391e+00</stageThreshold>
      <weakClassifiers>
        <_>
          <internalNodes>
            0 -1 655 -2.2793100215494633e-03</internalNodes>
          <leafValues>
            4.4858419895172119e-01 -3.9884394407272339e-01</leafValues></_>
        <_>
          <internalNodes>
            0 -1 296 2.6083918288350105e-02</internalNodes>
          <leafValues>
            -1.9321367144584656e-01 4.5530968904495239e-01</leafValues></_>
        <_>
          <internalNodes>
            0 -1 315 -2.5247093290090561e-02</internalNodes>
          <leafValues>
            3.1811854243278503e-01 -2.2516834735870361e-01</leafValues></_>
        <_>
          <internalNodes>
            0 -1 349 -1.0079275816679001e-02</internalNodes>
          <leafValues>
            4.9751788377761841e-01 -9.8742201924324036e-02</leafValues></_>
        <_>
          <internalNodes>
            0 -1 367 -7.4498229660093784e-03</internalNodes>
          <leafValues>
            6.0497713088989258e-01 -8.6047343909740448e-02</leafValues></_>
        <_>
          <internalNodes>
            0 -1 535 1.5634987503290176e-02</internalNodes>
          <leafValues>
            6.1657670885324478e-02 -7.9849082231521606e-01</leafValues></_>
        <_>
          <internalNodes>
            0 -1 415 -3.2409753650426865e-02</internalNodes>
          <leafValues>
            2.9653590917587280e-01 -1.4984028041362762e-01</leafValues></_>
        <_>
          <internalNodes>
            0 -1 377 -8.0835232511162758e-03</internalNodes>
          <leafValues>
            -4.9954971671104431e-01 1.0919147729873657e-01</leafValues></_>
        <_>
          <internalNodes>
            0 -1 412 2.8450726531445980e-03</internalNodes>
          <leafValues>
            1.5497177839279175e-01 -4.3067449331283569e-01</leafValues></_>
        <_>
          <internalNodes>
            0 -1 585 -3.3602521289139986e-03</internalNodes>
          <leafValues>
            4.1822251677513123e-01 -9.7697958350181580e-02</leafValues></_>
        <_>
          <internalNodes>
            0 -1 566 7.6790116727352142e-03</internalNodes>
          <leafValues>
            -1.0971966385841370e-01 3.6806660890579224e-01</leafValues></_>
        <_>
          <internalNodes>
            0 -1 16 -2.7818202972412109e-01</internalNodes>
          <leafValues>
            3.1134846806526184e-01 -1.4354290068149567e-01</leafValues></_>
        <_>
          <internalNodes>
            0 -1 173 1.3118829883751459e-05</internalNodes>
          <leafValues>
            -1.7620770633220673e-01 1.9754570722579956e-01</leafValues></_>
        <_>
          <internalNodes>
            0 -1 139 3.1021697446703911e-02</internalNodes>
          <leafValues>
            -7.9932793974876404e-02 4.6280300617218018e-01</leafValues></_>
        <_>
          <internalNodes>
            0 -1 541 1.1154653504490852e-02</internalNodes>
          <leafValues>
            6.7972019314765930e-02 -6.2137919664382935e-01</leafValues></_>
        <_>
          <internalNodes>
            0 -1 492 -2.5792121887207031e-02</internalNodes>
          <leafValues>
            -4.1831773519515991e-01 7.6691575348377228e-02</leafValues></_>
        <_>
          <internalNodes>
            0 -1 477 -5.9757432900369167e-03</internalNodes>
          <leafValues>
            2.5361353158950806e-01 -1.4799162745475769e-01</leafValues></_>
        <_>
          <internalNodes>
            0 -1 530 1.3302816078066826e-02</internalNodes>
          <leafValues>
            -8.3794474601745605e-02 4.1512185335159302e-01</leafValues></_>
        <_>
          <internalNodes>
            0 -1 544 -2.2788080386817455e-03</internalNodes>
          <leafValues>
            -3.9036959409713745e-01 9.8792351782321930e-02</leafValues></_>
        <_>
          <internalNodes>
            0 -1 77 1.3060231506824493e-01</internalNodes>
          <leafValues>
            7.1778528392314911e-02 -4.7554665803909302e-01</leafValues></_>
        <_>
          <internalNodes>
            0 -1 62 2.9878746718168259e-02</internalNodes>
          <leafValues>
            6.7366667091846466e-02 -4.9863353371620178e-01</leafValues></_>
        <_>
          <internalNodes>
            0 -1 130 -2.7467813342809677e-02</internalNodes>
          <leafValues>
            -3.7884995341300964e-01 1.0698839277029037e-01</leafValues></_>
        <_>
          <internalNodes>
            0 -1 112 -1.6785349696874619e-02</internalNodes>
          <leafValues>
            4.4761139154434204e-01 -7.5029604136943817e-02</leafValues></_>
        <_>
          <internalNodes>
            0 -1 108 8.8318288326263428e-02</internalNodes>
          <leafValues>
            8.5760161280632019e-02 -4.1532230377197266e-01</leafValues></_>
        <_>
          <internalNodes>
            0 -1 174 -2.0270973909646273e-03</internalNodes>
          <leafValues>
            -4.5070809125900269e-01 6.2754161655902863e-02</leafValues></_>
        <_>
          <internalNodes>
            0 -1 118 -1.2075020000338554e-02</internalNodes>
          <leafValues>
            4.6564614772796631e-01 -7.6157473027706146e-02</leafValues></_>
        <_>
          <internalNodes>
            0 -1 478 2.0703335758298635e-03</internalNodes>
          <leafValues>
            -1.2691195309162140e-01 2.5634810328483582e-01</leafValues></_>
        <_>
          <internalNodes>
            0 -1 652 1.4770645648241043e-02</internalNodes>
          <leafValues>
            -7.4583336710929871e-02 4.5665341615676880e-01</leafValues></_>
        <_>
          <internalNodes>
            0 -1 13 -4.3707944452762604e-02</internalNodes>
          <leafValues>
            2.0693352818489075e-01 -1.5485256910324097e-01</leafValues></_>
        <_>
          <internalNodes>
            0 -1 600 -2.7407542802393436e-03</internalNodes>
          <leafValues>
            1.8496577441692352e-01 -1.8281950056552887e-01</leafValues></_>
        <_>
          <internalNodes>
            0 -1 60 -1.9544772803783417e-02</internalNodes>
          <leafValues>
            2.4669563770294189e-01 -1.3010889291763306e-01</leafValues></_>
        <_>
          <internalNodes>
            0 -1 433 -1.2360516848275438e-05</internalNodes>
          <leafValues>
            2.0566488802433014e-01 -1.5483275055885315e-01</leafValues></_>
        <_>
          <internalNodes>
            0 -1 433 2.5235265638912097e-05</internalNodes>
          <leafValues>
            -1.4768220484256744e-01 2.1575187146663666e-01</leafValues></_>
        <_>
          <internalNodes>
            0 -1 228 1.1493977159261703e-02</internalNodes>
          <leafValues>
            8.8682606816291809e-02 -3.6833167076110840e-01</leafValues></_>
        <_>
          <internalNodes>
            0 -1 396 2.5597337633371353e-02</internalNodes>
          <leafValues>
            6.3475139439105988e-02 -4.5030257105827332e-01</leafValues></_>
        <_>
          <internalNodes>
            0 -1 81 9.9240355193614960e-03</internalNodes>
          <leafValues>
            -7.2105765342712402e-02 4.6640199422836304e-01</leafValues></_>
        <_>
          <internalNodes>
            0 -1 608 -8.6055006831884384e-03</internalNodes>
          <leafValues>
            -3.5043644905090332e-01 8.3420298993587494e-02</leafValues></_>
        <_>
          <internalNodes>
            0 -1 523 2.3486290592700243e-03</internalNodes>
          <leafValues>
            -6.5267302095890045e-02 4.1371059417724609e-01</leafValues></_>
        <_>
          <internalNodes>
            0 -1 462 -3.2560280524194241e-03</internalNodes>
          <leafValues>
            1.7499460279941559e-01 -1.6186836361885071e-01</leafValues></_>
        <_>
          <internalNodes>
            0 -1 402 -3.9560766890645027e-03</internalNodes>
          <leafValues>
            -2.2243915498256683e-01 1.2856546044349670e-01</leafValues></_>
        <_>
          <internalNodes>
            0 -1 321 9.8888045176863670e-03</internalNodes>
          <leafValues>
            1.0982531309127808e-01 -2.8333908319473267e-01</leafValues></_>
        <_>
          <internalNodes>
            0 -1 376 -5.1375003531575203e-03</internalNodes>
          <leafValues>
            -5.0451880693435669e-01 5.8916561305522919e-02</leafValues></_>
        <_>
          <internalNodes>
            0 -1 241 2.8467401862144470e-02</internalNodes>
          <leafValues>
            -9.4899237155914307e-02 3.1602832674980164e-01</leafValues></_>
        <_>
          <internalNodes>
            0 -1 357 -7.2101119440048933e-04</internalNodes>
          <leafValues>
            -2.2132208943367004e-01 1.3643336296081543e-01</leafValues></_>
        <_>
          <internalNodes>
            0 -1 282 -1.4209119603037834e-02</internalNodes>
          <leafValues>
            4.8046448826789856e-01 -6.8733200430870056e-02</leafValues></_>
        <_>
          <internalNodes>
            0 -1 48 3.9968889206647873e-02</internalNodes>
          <leafValues>
            5.3243212401866913e-02 -6.2090647220611572e-01</leafValues></_></weakClassifiers></_>
    <!-- stage 5 -->
    <_>
      <maxWeakCount>46</maxWeakCount>
      <stageThreshold>-1.5130621194839478e+00</stageThreshold>
      <weakClassifiers>
        <_>
          <internalNodes>
            0 -1 618 -2.8511271812021732e-03</internalNodes>
          <leafValues>
            2.2107131779193878e-01 -4.5941734313964844e-01</leafValues></_>
        <_>
          <internalNodes>
            0 -1 306 -1.2566307559609413e-02</internalNodes>
          <leafValues>
            5.1799833774566650e-01 -1.8478146195411682e-01</leafValues></_>
        <_>
          <internalNodes>
            0 -1 258 -9.5689324662089348e-03</internalNodes>
          <leafValues>
            2.3607227206230164e-01 -3.0720266699790955e-01</leafValues></_>
        <_>
          <internalNodes>
            0 -1 353 -8.6265485733747482e-03</internalNodes>
          <leafValues>
            2.6246449351310730e-01 -2.0860511064529419e-01</leafValues></_>
        <_>
          <internalNodes>
            0 -1 308 -5.3354231640696526e-03</internalNodes>
          <leafValues>
            3.1296658515930176e-01 -1.5541703999042511e-01</leafValues></_>
        <_>
          <internalNodes>
            0 -1 482 1.1008394649252295e-03</internalNodes>
          <leafValues>
            1.1067218333482742e-01 -4.5596843957901001e-01</leafValues></_>
        <_>
          <internalNodes>
            0 -1 221 -4.6272054896689951e-04</internalNodes>
          <leafValues>
            2.2338463366031647e-01 -2.1371889114379883e-01</leafValues></_>
        <_>
          <internalNodes>
            0 -1 482 -5.7232682593166828e-04</internalNodes>
          <leafValues>
            -3.4548082947731018e-01 1.3820646703243256e-01</leafValues></_>
        <_>
          <internalNodes>
            0 -1 456 -1.2662930414080620e-02</internalNodes>
          <leafValues>
            3.0425408482551575e-01 -1.7836301028728485e-01</leafValues></_>
        <_>
          <internalNodes>
            0 -1 26 4.4496777653694153e-01</internalNodes>
          <leafValues>
            -4.5983191579580307e-02 5.5254596471786499e-01</leafValues></_>
        <_>
          <internalNodes>
            0 -1 24 -7.8286632895469666e-02</internalNodes>
          <leafValues>
            2.5760129094123840e-01 -1.4928181469440460e-01</leafValues></_>
        <_>
          <internalNodes>
            0 -1 96 5.7284580543637276e-03</internalNodes>
          <leafValues>
            -1.1276751011610031e-01 3.8022163510322571e-01</leafValues></_>
        <_>
          <internalNodes>
            0 -1 179 -7.1979099884629250e-03</internalNodes>
          <leafValues>
            -4.0571376681327820e-01 1.0163225978612900e-01</leafValues></_>
        <_>
          <internalNodes>
            0 -1 403 -1.1925130151212215e-02</internalNodes>
          <leafValues>
            4.8812630772590637e-01 -8.8035516440868378e-02</leafValues></_>
        <_>
          <internalNodes>
            0 -1 209 4.5822005718946457e-02</internalNodes>
          <leafValues>
            6.9958113133907318e-02 -5.4966413974761963e-01</leafValues></_>
        <_>
          <internalNodes>
            0 -1 514 -2.5204379198839888e-05</internalNodes>
          <leafValues>
            2.2607477009296417e-01 -1.5768808126449585e-01</leafValues></_>
        <_>
          <internalNodes>
            0 -1 3 5.7164141908288002e-03</internalNodes>
          <leafValues>
            1.1109809577465057e-01 -3.2772681117057800e-01</leafValues></_>
        <_>
          <internalNodes>
            0 -1 302 -1.0990342125296593e-02</internalNodes>
          <leafValues>
            4.9555534124374390e-01 -7.5329378247261047e-02</leafValues></_>
        <_>
          <internalNodes>
            0 -1 592 1.2752018847095314e-05</internalNodes>
          <leafValues>
            -1.8424656987190247e-01 1.8619960546493530e-01</leafValues></_>
        <_>
          <internalNodes>
            0 -1 78 6.3499927520751953e-02</internalNodes>
          <leafValues>
            1.0173770785331726e-01 -3.1566667556762695e-01</leafValues></_>
        <_>
          <internalNodes>
            0 -1 151 4.9356892704963684e-03</internalNodes>
          <leafValues>
            1.1679693311452866e-01 -3.3236455917358398e-01</leafValues></_>
        <_>
          <internalNodes>
            0 -1 617 -1.0075256228446960e-02</internalNodes>
          <leafValues>
            5.2923482656478882e-01 -6.0821544378995895e-02</leafValues></_>
        <_>
          <internalNodes>
            0 -1 184 3.7822131067514420e-02</internalNodes>
          <leafValues>
            -8.9911229908466339e-02 3.6191022396087646e-01</leafValues></_>
        <_>
          <internalNodes>
            0 -1 435 -3.1345062889158726e-03</internalNodes>
          <leafValues>
            2.2472847998142242e-01 -1.4485859870910645e-01</leafValues></_>
        <_>
          <internalNodes>
            0 -1 629 -2.2565850522369146e-03</internalNodes>
          <leafValues>
            -4.8521915078163147e-01 6.7497529089450836e-02</leafValues></_>
        <_>
          <internalNodes>
            0 -1 286 3.0502378940582275e-03</internalNodes>
          <leafValues>
            -7.6732784509658813e-02 4.4451260566711426e-01</leafValues></_>
        <_>
          <internalNodes>
            0 -1 53 -8.2078933715820313e-02</internalNodes>
          <leafValues>
            2.2729624807834625e-01 -1.4525547623634338e-01</leafValues></_>
        <_>
          <internalNodes>
            0 -1 354 7.0978980511426926e-03</internalNodes>
          <leafValues>
            -1.1438398808240891e-01 3.4910899400711060e-01</leafValues></_>
        <_>
          <internalNodes>
            0 -1 328 2.8537432663142681e-03</internalNodes>
          <leafValues>
            -5.9707719832658768e-02 4.6757870912551880e-01</leafValues></_>
        <_>
          <internalNodes>
            0 -1 245 1.7315724398940802e-03</internalNodes>
          <leafValues>
            -9.0972982347011566e-02 3.2158944010734558e-01</leafValues></_>
        <_>
          <internalNodes>
            0 -1 283 1.0681198537349701e-01</internalNodes>
          <leafValues>
            4.3763738125562668e-02 -7.2633075714111328e-01</leafValues></_>
        <_>
          <internalNodes>
            0 -1 268 5.7493681088089943e-03</internalNodes>
          <leafValues>
            4.7877881675958633e-02 -5.3609251976013184e-01</leafValues></_>
        <_>
          <internalNodes>
            0 -1 142 1.1962097138166428e-02</internalNodes>
          <leafValues>
            4.6901460736989975e-02 -5.4108411073684692e-01</leafValues></_>
        <_>
          <internalNodes>
            0 -1 596 2.4899767595343292e-05</internalNodes>
          <leafValues>
            -1.6550745069980621e-01 1.7399007081985474e-01</leafValues></_>
        <_>
          <internalNodes>
            0 -1 624 -1.2655951082706451e-02</internalNodes>
          <leafValues>
            -7.1776306629180908e-01 3.5208880901336670e-02</leafValues></_>
        <_>
          <internalNodes>
            0 -1 524 8.1380493938922882e-03</internalNodes>
          <leafValues>
            -1.0078433901071548e-01 3.1026414036750793e-01</leafValues></_>
        <_>
          <internalNodes>
            0 -1 207 -1.8552294932305813e-03</internalNodes>
          <leafValues>
            -3.4882035851478577e-01 7.6924219727516174e-02</leafValues></_>
        <_>
          <internalNodes>
            0 -1 494 -1.1289151385426521e-02</internalNodes>
          <leafValues>
            3.7888088822364807e-01 -7.8408300876617432e-02</leafValues></_>
        <_>
          <internalNodes>
            0 -1 471 -2.1655997261404991e-04</internalNodes>
          <leafValues>
            -2.9044595360755920e-01 9.5985151827335358e-02</leafValues></_>
        <_>
          <internalNodes>
            0 -1 580 -5.9986328706145287e-03</internalNodes>
          <leafValues>
            4.0867868065834045e-01 -6.8357139825820923e-02</leafValues></_>
        <_>
          <internalNodes>
            0 -1 400 6.3546891324222088e-03</internalNodes>
          <leafValues>
            -1.1979121714830399e-01 2.0979994535446167e-01</leafValues></_>
        <_>
          <internalNodes>
            0 -1 613 -5.7064760476350784e-03</internalNodes>
          <leafValues>
            2.0479397475719452e-01 -1.4308047294616699e-01</leafValues></_>
        <_>
          <internalNodes>
            0 -1 211 2.4084136821329594e-03</internalNodes>
          <leafValues>
            1.0153733193874359e-01 -2.7669739723205566e-01</leafValues></_>
        <_>
          <internalNodes>
            0 -1 89 -1.9089918583631516e-02</internalNodes>
          <leafValues>
            4.5456334948539734e-01 -6.5372362732887268e-02</leafValues></_>
        <_>
          <internalNodes>
            0 -1 572 1.2524683370429557e-05</internalNodes>
          <leafValues>
            -1.6524668037891388e-01 1.5164168179035187e-01</leafValues></_>
        <_>
          <internalNodes>
            0 -1 575 3.8215861422941089e-04</internalNodes>
          <leafValues>
            8.2626983523368835e-02 -3.6599031090736389e-01</leafValues></_></weakClassifiers></_>
    <!-- stage 6 -->
    <_>
      <maxWeakCount>52</maxWeakCount>
      <stageThreshold>-1.5789301395416260e+00</stageThreshold>
      <weakClassifiers>
        <_>
          <internalNodes>
            0 -1 323 -1.7800074070692062e-02</internalNodes>
          <leafValues>
            4.1107562184333801e-01 -3.7550505995750427e-01</leafValues></_>
        <_>
          <internalNodes>
            0 -1 671 -2.9585827142000198e-03</internalNodes>
          <leafValues>
            6.0168701410293579e-01 -1.4776809513568878e-01</leafValues></_>
        <_>
          <internalNodes>
            0 -1 185 1.2837629583373200e-05</internalNodes>
          <leafValues>
            -2.7003365755081177e-01 2.0459742844104767e-01</leafValues></_>
        <_>
          <internalNodes>
            0 -1 565 2.3147709725890309e-05</internalNodes>
          <leafValues>
            -2.2694893181324005e-01 2.1160878241062164e-01</leafValues></_>
        <_>
          <internalNodes>
            0 -1 70 1.0678391903638840e-02</internalNodes>
          <leafValues>
            -1.3391767442226410e-01 3.4875860810279846e-01</leafValues></_>
        <_>
          <internalNodes>
            0 -1 210 2.6399858295917511e-02</internalNodes>
          <leafValues>
            9.7334891557693481e-02 -4.4784647226333618e-01</leafValues></_>
        <_>
          <internalNodes>
            0 -1 284 1.7826158553361893e-02</internalNodes>
          <leafValues>
            -6.6866956651210785e-02 5.1454412937164307e-01</leafValues></_>
        <_>
          <internalNodes>
            0 -1 303 -3.4796731779351830e-04</internalNodes>
          <leafValues>
            -3.6252230405807495e-01 1.0649379342794418e-01</leafValues></_>
        <_>
          <internalNodes>
            0 -1 276 -5.5695228278636932e-02</internalNodes>
          <leafValues>
            5.2735966444015503e-01 -8.8632605969905853e-02</leafValues></_>
        <_>
          <internalNodes>
            0 -1 345 -1.3386148493736982e-03</internalNodes>
          <leafValues>
            -3.1590074300765991e-01 1.3600379228591919e-01</leafValues></_>
        <_>
          <internalNodes>
            0 -1 264 1.2389943003654480e-02</internalNodes>
          <leafValues>
            1.0963453352451324e-01 -4.0145820379257202e-01</leafValues></_>
        <_>
          <internalNodes>
            0 -1 571 1.2175067240605131e-05</internalNodes>
          <leafValues>
            -1.6525462269783020e-01 2.0547136664390564e-01</leafValues></_>
        <_>
          <internalNodes>
            0 -1 567 1.2365751899778843e-05</internalNodes>
          <leafValues>
            -1.8300949037075043e-01 1.7951732873916626e-01</leafValues></_>
        <_>
          <internalNodes>
            0 -1 538 -9.7009884193539619e-03</internalNodes>
          <leafValues>
            4.7989410161972046e-01 -6.7978084087371826e-02</leafValues></_>
        <_>
          <internalNodes>
            0 -1 631 -1.3018038123846054e-02</internalNodes>
          <leafValues>
            -5.0049406290054321e-01 6.6199019551277161e-02</leafValues></_>
        <_>
          <internalNodes>
            0 -1 659 3.5293241962790489e-03</internalNodes>
          <leafValues>
            -8.6747303605079651e-02 3.5738143324851990e-01</leafValues></_>
        <_>
          <internalNodes>
            0 -1 531 -1.3519722968339920e-02</internalNodes>
          <leafValues>
            5.4801195859909058e-01 -5.2435673773288727e-02</leafValues></_>
        <_>
          <internalNodes>
            0 -1 326 5.1774908788502216e-03</internalNodes>
          <leafValues>
            1.1426385492086411e-01 -3.1191787123680115e-01</leafValues></_>
        <_>
          <internalNodes>
            0 -1 362 2.4510405637556687e-05</internalNodes>
          <leafValues>
            -1.7345523834228516e-01 1.7828544974327087e-01</leafValues></_>
        <_>
          <internalNodes>
            0 -1 547 -2.2364519536495209e-02</internalNodes>
          <leafValues>
            3.6016774177551270e-01 -8.8106147944927216e-02</leafValues></_>
        <_>
          <internalNodes>
            0 -1 515 -2.0800909027457237e-02</internalNodes>
          <leafValues>
            1.9052805006504059e-01 -1.8340221047401428e-01</leafValues></_>
        <_>
          <internalNodes>
            0 -1 240 -1.6547035425901413e-02</internalNodes>
          <leafValues>
            5.3695738315582275e-01 -6.4820766448974609e-02</leafValues></_>
        <_>
          <internalNodes>
            0 -1 484 -1.1240668594837189e-02</internalNodes>
          <leafValues>
            2.9683536291122437e-01 -1.0448247939348221e-01</leafValues></_>
        <_>
          <internalNodes>
            0 -1 37 -1.7369117587804794e-02</internalNodes>
          <leafValues>
            2.0876812934875488e-01 -1.6654336452484131e-01</leafValues></_>
        <_>
          <internalNodes>
            0 -1 250 -4.0630786679685116e-03</internalNodes>
          <leafValues>
            4.4654557108879089e-01 -6.8496033549308777e-02</leafValues></_>
        <_>
          <internalNodes>
            0 -1 106 2.7521364390850067e-02</internalNodes>
          <leafValues>
            -1.4238412678241730e-01 1.9334085285663605e-01</leafValues></_>
        <_>
          <internalNodes>
            0 -1 147 -1.7476644366979599e-02</internalNodes>
          <leafValues>
            3.8655573129653931e-01 -8.6280405521392822e-02</leafValues></_>
        <_>
          <internalNodes>
            0 -1 84 2.5775825604796410e-02</internalNodes>
          <leafValues>
            8.8164120912551880e-02 -3.4729498624801636e-01</leafValues></_>
        <_>
          <internalNodes>
            0 -1 375 -6.8577704951167107e-03</internalNodes>
          <leafValues>
            2.0320749282836914e-01 -1.4299708604812622e-01</leafValues></_>
        <_>
          <internalNodes>
            0 -1 30 4.3590543791651726e-03</internalNodes>
          <leafValues>
            7.5030811131000519e-02 -3.5355579853057861e-01</leafValues></_>
        <_>
          <internalNodes>
            0 -1 232 7.1070098783820868e-04</internalNodes>
          <leafValues>
            6.9557726383209229e-02 -3.6997029185295105e-01</leafValues></_>
        <_>
          <internalNodes>
            0 -1 551 8.5164401680231094e-03</internalNodes>
          <leafValues>
            -9.3566864728927612e-02 2.9632234573364258e-01</leafValues></_>
        <_>
          <internalNodes>
            0 -1 391 8.7632507085800171e-02</internalNodes>
          <leafValues>
            3.6070168018341064e-02 -7.8751373291015625e-01</leafValues></_>
        <_>
          <internalNodes>
            0 -1 460 -1.2407110261847265e-05</internalNodes>
          <leafValues>
            1.6709482669830322e-01 -1.6972760856151581e-01</leafValues></_>
        <_>
          <internalNodes>
            0 -1 374 4.7904364764690399e-03</internalNodes>
          <leafValues>
            8.2503817975521088e-02 -3.2768815755844116e-01</leafValues></_>
        <_>
          <internalNodes>
            0 -1 373 -4.9565723165869713e-03</internalNodes>
          <leafValues>
            -2.7629756927490234e-01 1.0248653590679169e-01</leafValues></_>
        <_>
          <internalNodes>
            0 -1 545 -6.8129980936646461e-03</internalNodes>
          <leafValues>
            4.2203804850578308e-01 -6.6720850765705109e-02</leafValues></_>
        <_>
          <internalNodes>
            0 -1 213 -1.9243133720010519e-03</internalNodes>
          <leafValues>
            -4.0468508005142212e-01 6.4797751605510712e-02</leafValues></_>
        <_>
          <internalNodes>
            0 -1 247 1.0682011023163795e-02</internalNodes>
          <leafValues>
            -7.8574568033218384e-02 3.4110745787620544e-01</leafValues></_>
        <_>
          <internalNodes>
            0 -1 69 1.1276478879153728e-02</internalNodes>
          <leafValues>
            -6.4754076302051544e-02 3.7942278385162354e-01</leafValues></_>
        <_>
          <internalNodes>
            0 -1 103 -3.6796908825635910e-03</internalNodes>
          <leafValues>
            1.9062772393226624e-01 -1.4520895481109619e-01</leafValues></_>
        <_>
          <internalNodes>
            0 -1 218 -1.3087141560390592e-03</internalNodes>
          <leafValues>
            -3.5440257191658020e-01 7.9586066305637360e-02</leafValues></_>
        <_>
          <internalNodes>
            0 -1 352 2.4019373813644052e-04</internalNodes>
          <leafValues>
            -1.7879307270050049e-01 1.5143071115016937e-01</leafValues></_>
        <_>
          <internalNodes>
            0 -1 73 2.3877836763858795e-02</internalNodes>
          <leafValues>
            -1.1409158259630203e-01 2.3627384006977081e-01</leafValues></_>
        <_>
          <internalNodes>
            0 -1 153 -2.5122300721704960e-03</internalNodes>
          <leafValues>
            4.2813295125961304e-01 -7.2413682937622070e-02</leafValues></_>
        <_>
          <internalNodes>
            0 -1 146 -7.1519926190376282e-02</internalNodes>
          <leafValues>
            -3.9860054850578308e-01 7.3543094098567963e-02</leafValues></_>
        <_>
          <internalNodes>
            0 -1 124 1.0236290283501148e-02</internalNodes>
          <leafValues>
            -7.2294473648071289e-02 4.0214860439300537e-01</leafValues></_>
        <_>
          <internalNodes>
            0 -1 653 -3.3997622085735202e-04</internalNodes>
          <leafValues>
            1.5051335096359253e-01 -1.7350742220878601e-01</leafValues></_>
        <_>
          <internalNodes>
            0 -1 598 5.0201439298689365e-03</internalNodes>
          <leafValues>
            4.0092017501592636e-02 -6.5925598144531250e-01</leafValues></_>
        <_>
          <internalNodes>
            0 -1 632 -2.9225354082882404e-03</internalNodes>
          <leafValues>
            4.3573072552680969e-01 -6.8488851189613342e-02</leafValues></_>
        <_>
          <internalNodes>
            0 -1 358 -1.9903232168871909e-04</internalNodes>
          <leafValues>
            -2.5722676515579224e-01 1.1143954843282700e-01</leafValues></_>
        <_>
          <internalNodes>
            0 -1 384 -6.8923644721508026e-03</internalNodes>
          <leafValues>
            1.7462927103042603e-01 -1.5245358645915985e-01</leafValues></_></weakClassifiers></_>
    <!-- stage 7 -->
    <_>
      <maxWeakCount>52</maxWeakCount>
      <stageThreshold>-1.5296477079391479e+00</stageThreshold>
      <weakClassifiers>
        <_>
          <internalNodes>
            0 -1 364 -3.9609346538782120e-02</internalNodes>
          <leafValues>
            5.1724135875701904e-01 -3.3583664894104004e-01</leafValues></_>
        <_>
          <internalNodes>
            0 -1 483 1.7484137788414955e-03</internalNodes>
          <leafValues>
            1.2619157135486603e-01 -4.9184080958366394e-01</leafValues></_>
        <_>
          <internalNodes>
            0 -1 483 -1.2135324068367481e-03</internalNodes>
          <leafValues>
            -3.7691506743431091e-01 1.7184779047966003e-01</leafValues></_>
        <_>
          <internalNodes>
            0 -1 368 9.2284905258566141e-04</internalNodes>
          <leafValues>
            -2.6049059629440308e-01 1.6302251815795898e-01</leafValues></_>
        <_>
          <internalNodes>
            0 -1 610 4.8702392727136612e-02</internalNodes>
          <leafValues>
            -1.4923577010631561e-01 2.8326073288917542e-01</leafValues></_>
        <_>
          <internalNodes>
            0 -1 663 -1.4572417057934217e-05</internalNodes>
          <leafValues>
            2.6366001367568970e-01 -1.7111681401729584e-01</leafValues></_>
        <_>
          <internalNodes>
            0 -1 205 2.1479256451129913e-02</internalNodes>
          <leafValues>
            9.8613157868385315e-02 -3.9656060934066772e-01</leafValues></_>
        <_>
          <internalNodes>
            0 -1 42 -3.3842999488115311e-02</internalNodes>
          <leafValues>
            2.9088661074638367e-01 -1.4874233305454254e-01</leafValues></_>
        <_>
          <internalNodes>
            0 -1 634 8.4317231085151434e-04</internalNodes>
          <leafValues>
            -1.9722256064414978e-01 2.2588884830474854e-01</leafValues></_>
        <_>
          <internalNodes>
            0 -1 59 1.6711956262588501e-01</internalNodes>
          <leafValues>
            -9.9516332149505615e-02 5.8407264947891235e-01</leafValues></_>
        <_>
          <internalNodes>
            0 -1 307 3.3540528966113925e-04</internalNodes>
          <leafValues>
            1.0597395896911621e-01 -3.9774253964424133e-01</leafValues></_>
        <_>
          <internalNodes>
            0 -1 307 -2.4650071281939745e-04</internalNodes>
          <leafValues>
            -3.0500164628028870e-01 1.1305388063192368e-01</leafValues></_>
        <_>
          <internalNodes>
            0 -1 141 3.0416594818234444e-02</internalNodes>
          <leafValues>
            -1.1546493321657181e-01 3.3249363303184509e-01</leafValues></_>
        <_>
          <internalNodes>
            0 -1 299 3.8612127304077148e-02</internalNodes>
          <leafValues>
            -8.9335367083549500e-02 4.2813092470169067e-01</leafValues></_>
        <_>
          <internalNodes>
            0 -1 36 4.2255409061908722e-03</internalNodes>
          <leafValues>
            1.0055388510227203e-01 -3.3682972192764282e-01</leafValues></_>
        <_>
          <internalNodes>
            0 -1 0 4.3881367892026901e-03</internalNodes>
          <leafValues>
            7.5305461883544922e-02 -4.3809935450553894e-01</leafValues></_>
        <_>
          <internalNodes>
            0 -1 92 7.9826191067695618e-03</internalNodes>
          <leafValues>
            -1.1838451772928238e-01 2.8779289126396179e-01</leafValues></_>
        <_>
          <internalNodes>
            0 -1 647 7.9825790598988533e-03</internalNodes>
          <leafValues>
            4.8375960439443588e-02 -6.4518064260482788e-01</leafValues></_>
        <_>
          <internalNodes>
            0 -1 126 -3.9703119546175003e-03</internalNodes>
          <leafValues>
            4.3421459197998047e-01 -7.9537615180015564e-02</leafValues></_>
        <_>
          <internalNodes>
            0 -1 50 -1.5509766526520252e-03</internalNodes>
          <leafValues>
            -3.1757754087448120e-01 9.6438087522983551e-02</leafValues></_>
        <_>
          <internalNodes>
            0 -1 253 -8.2715712487697601e-03</internalNodes>
          <leafValues>
            -6.4987421035766602e-01 4.4688079506158829e-02</leafValues></_>
        <_>
          <internalNodes>
            0 -1 131 3.4668245352804661e-03</internalNodes>
          <leafValues>
            -6.1117906123399734e-02 5.4276138544082642e-01</leafValues></_>
        <_>
          <internalNodes>
            0 -1 6 9.0544589329510927e-04</internalNodes>
          <leafValues>
            1.0400044173002243e-01 -2.6462930440902710e-01</leafValues></_>
        <_>
          <internalNodes>
            0 -1 46 -1.8652658909559250e-02</internalNodes>
          <leafValues>
            -4.5797109603881836e-01 6.5475091338157654e-02</leafValues></_>
        <_>
          <internalNodes>
            0 -1 39 -5.5548250675201416e-02</internalNodes>
          <leafValues>
            -6.0527479648590088e-01 3.8536470383405685e-02</leafValues></_>
        <_>
          <internalNodes>
            0 -1 279 -6.7541003227233887e-02</internalNodes>
          <leafValues>
            6.1223310232162476e-01 -4.8481591045856476e-02</leafValues></_>
        <_>
          <internalNodes>
            0 -1 138 2.7154181152582169e-03</internalNodes>
          <leafValues>
            -9.0330719947814941e-02 2.8879526257514954e-01</leafValues></_>
        <_>
          <internalNodes>
            0 -1 382 1.0166103020310402e-03</internalNodes>
          <leafValues>
            8.6468823254108429e-02 -3.1185334920883179e-01</leafValues></_>
        <_>
          <internalNodes>
            0 -1 292 -3.7702396512031555e-02</internalNodes>
          <leafValues>
            6.5776741504669189e-01 -4.3883681297302246e-02</leafValues></_>
        <_>
          <internalNodes>
            0 -1 256 -1.5224860981106758e-03</internalNodes>
          <leafValues>
            -3.3302900195121765e-01 8.2966990768909454e-02</leafValues></_>
        <_>
          <internalNodes>
            0 -1 288 -1.2031489750370383e-03</internalNodes>
          <leafValues>
            1.7564257979393005e-01 -1.5281966328620911e-01</leafValues></_>
        <_>
          <internalNodes>
            0 -1 117 1.0352558456361294e-02</internalNodes>
          <leafValues>
            -8.6056858301162720e-02 3.9155620336532593e-01</leafValues></_>
        <_>
          <internalNodes>
            0 -1 382 -6.4566696528345346e-04</internalNodes>
          <leafValues>
            -2.4889172613620758e-01 1.0804951936006546e-01</leafValues></_>
        <_>
          <internalNodes>
            0 -1 202 -1.3555977493524551e-02</internalNodes>
          <leafValues>
            3.7164384126663208e-01 -7.5576573610305786e-02</leafValues></_>
        <_>
          <internalNodes>
            0 -1 120 9.3256924301385880e-03</internalNodes>
          <leafValues>
            6.5240807831287384e-02 -4.6392524242401123e-01</leafValues></_>
        <_>
          <internalNodes>
            0 -1 550 -9.6092093735933304e-03</internalNodes>
          <leafValues>
            2.6065093278884888e-01 -1.0091995447874069e-01</leafValues></_>
        <_>
          <internalNodes>
            0 -1 579 -3.2673664391040802e-02</internalNodes>
          <leafValues>
            2.8432819247245789e-01 -1.0579150170087814e-01</leafValues></_>
        <_>
          <internalNodes>
            0 -1 261 -3.1301528215408325e-02</internalNodes>
          <leafValues>
            -4.2315161228179932e-01 6.9327123463153839e-02</leafValues></_>
        <_>
          <internalNodes>
            0 -1 312 1.1765128001570702e-03</internalNodes>
          <leafValues>
            -1.6893114149570465e-01 1.5867328643798828e-01</leafValues></_>
        <_>
          <internalNodes>
            0 -1 208 -4.9847890622913837e-03</internalNodes>
          <leafValues>
            1.5382716059684753e-01 -1.6871207952499390e-01</leafValues></_>
        <_>
          <internalNodes>
            0 -1 533 1.0294428095221519e-02</internalNodes>
          <leafValues>
            -1.1226639151573181e-01 2.2268207371234894e-01</leafValues></_>
        <_>
          <internalNodes>
            0 -1 601 1.7810275312513113e-04</internalNodes>
          <leafValues>
            9.8192520439624786e-02 -2.7440583705902100e-01</leafValues></_>
        <_>
          <internalNodes>
            0 -1 458 -3.5858419723808765e-03</internalNodes>
          <leafValues>
            2.9722028970718384e-01 -9.2112168669700623e-02</leafValues></_>
        <_>
          <internalNodes>
            0 -1 665 -2.3525244614575058e-05</internalNodes>
          <leafValues>
            1.7121855914592743e-01 -1.4449208974838257e-01</leafValues></_>
        <_>
          <internalNodes>
            0 -1 463 4.3474890291690826e-02</internalNodes>
          <leafValues>
            4.4049371033906937e-02 -5.2737575769424438e-01</leafValues></_>
        <_>
          <internalNodes>
            0 -1 319 -4.5400629751384258e-03</internalNodes>
          <leafValues>
            -3.0141210556030273e-01 8.1142738461494446e-02</leafValues></_>
        <_>
          <internalNodes>
            0 -1 569 3.4137736074626446e-03</internalNodes>
          <leafValues>
            4.5437365770339966e-02 -5.1325476169586182e-01</leafValues></_>
        <_>
          <internalNodes>
            0 -1 385 -3.9782533422112465e-03</internalNodes>
          <leafValues>
            3.3728137612342834e-01 -7.4131891131401062e-02</leafValues></_>
        <_>
          <internalNodes>
            0 -1 446 1.3006700100959279e-05</internalNodes>
          <leafValues>
            -1.5316477417945862e-01 1.6857795417308807e-01</leafValues></_>
        <_>
          <internalNodes>
            0 -1 206 -1.2693893040705007e-05</internalNodes>
          <leafValues>
            1.4535251259803772e-01 -1.6600199043750763e-01</leafValues></_>
        <_>
          <internalNodes>
            0 -1 344 -2.5703758001327515e-04</internalNodes>
          <leafValues>
            -2.8954783082008362e-01 9.3660734593868256e-02</leafValues></_>
        <_>
          <internalNodes>
            0 -1 85 2.1943170577287674e-02</internalNodes>
          <leafValues>
            6.3275471329689026e-02 -4.0305018424987793e-01</leafValues></_></weakClassifiers></_>
    <!-- stage 8 -->
    <_>
      <maxWeakCount>59</maxWeakCount>
      <stageThreshold>-1.6069511175155640e+00</stageThreshold>
      <weakClassifiers>
        <_>
          <internalNodes>
            0 -1 188 -1.6458144411444664e-02</internalNodes>
          <leafValues>
            3.8625466823577881e-01 -3.6952406167984009e-01</leafValues></_>
        <_>
          <internalNodes>
            0 -1 257 -3.7364189047366381e-03</internalNodes>
          <leafValues>
            2.1586845815181732e-01 -3.5380098223686218e-01</leafValues></_>
        <_>
          <internalNodes>
            0 -1 38 -3.4275129437446594e-02</internalNodes>
          <leafValues>
            3.2686498761177063e-01 -1.9800271093845367e-01</leafValues></_>
        <_>
          <internalNodes>
            0 -1 341 -4.2486380785703659e-02</internalNodes>
          <leafValues>
            4.5574590563774109e-01 -1.2035693228244781e-01</leafValues></_>
        <_>
          <internalNodes>
            0 -1 451 1.2699996586889029e-03</internalNodes>
          <leafValues>
            -1.8369340896606445e-01 2.4932397902011871e-01</leafValues></_>
        <_>
          <internalNodes>
            0 -1 300 -7.1069276891648769e-03</internalNodes>
          <leafValues>
            -4.4431653618812561e-01 1.3210800290107727e-01</leafValues></_>
        <_>
          <internalNodes>
            0 -1 270 4.6663489192724228e-03</internalNodes>
          <leafValues>
            -1.3972541689872742e-01 4.1708531975746155e-01</leafValues></_>
        <_>
          <internalNodes>
            0 -1 343 7.6073016971349716e-03</internalNodes>
          <leafValues>
            1.4944170415401459e-01 -4.0972372889518738e-01</leafValues></_>
        <_>
          <internalNodes>
            0 -1 274 9.3058357015252113e-03</internalNodes>
          <leafValues>
            4.6998757869005203e-02 -4.5061138272285461e-01</leafValues></_>
        <_>
          <internalNodes>
            0 -1 648 -2.6884037069976330e-03</internalNodes>
          <leafValues>
            2.3608398437500000e-01 -1.5456411242485046e-01</leafValues></_>
        <_>
          <internalNodes>
            0 -1 12 6.3668645452708006e-04</internalNodes>
          <leafValues>
            1.0796394199132919e-01 -2.7373054623603821e-01</leafValues></_>
        <_>
          <internalNodes>
            0 -1 339 5.8114461600780487e-02</internalNodes>
          <leafValues>
            -3.9780009537935257e-02 7.4416953325271606e-01</leafValues></_>
        <_>
          <internalNodes>
            0 -1 573 2.1387211745604873e-04</internalNodes>
          <leafValues>
            1.1229178309440613e-01 -3.0081534385681152e-01</leafValues></_>
        <_>
          <internalNodes>
            0 -1 35 -3.8925755023956299e-01</internalNodes>
          <leafValues>
            5.8348381519317627e-01 -5.2042499184608459e-02</leafValues></_>
        <_>
          <internalNodes>
            0 -1 98 8.0314427614212036e-03</internalNodes>
          <leafValues>
            -9.9166691303253174e-02 3.1276282668113708e-01</leafValues></_>
        <_>
          <internalNodes>
            0 -1 388 -3.2240986824035645e-02</internalNodes>
          <leafValues>
            2.7647653222084045e-01 -1.2188494950532913e-01</leafValues></_>
        <_>
          <internalNodes>
            0 -1 356 1.0283613577485085e-02</internalNodes>
          <leafValues>
            -9.4729810953140259e-02 2.9976928234100342e-01</leafValues></_>
        <_>
          <internalNodes>
            0 -1 310 1.4043201226741076e-03</internalNodes>
          <leafValues>
            -1.5559922158718109e-01 1.8191908299922943e-01</leafValues></_>
        <_>
          <internalNodes>
            0 -1 498 -1.5073193935677409e-04</internalNodes>
          <leafValues>
            -2.7837395668029785e-01 1.0451961308717728e-01</leafValues></_>
        <_>
          <internalNodes>
            0 -1 289 1.7336837481707335e-03</internalNodes>
          <leafValues>
            9.7445309162139893e-02 -3.0012515187263489e-01</leafValues></_>
        <_>
          <internalNodes>
            0 -1 249 -4.8748433589935303e-02</internalNodes>
          <leafValues>
            -4.5458829402923584e-01 5.7660900056362152e-02</leafValues></_>
        <_>
          <internalNodes>
            0 -1 479 1.2727476423606277e-03</internalNodes>
          <leafValues>
            -7.5124219059944153e-02 3.7798014283180237e-01</leafValues></_>
        <_>
          <internalNodes>
            0 -1 10 -5.9041332453489304e-02</internalNodes>
          <leafValues>
            1.7740896344184875e-01 -1.5468005836009979e-01</leafValues></_>
        <_>
          <internalNodes>
            0 -1 21 1.4084132015705109e-01</internalNodes>
          <leafValues>
            -7.2417505085468292e-02 4.0506449341773987e-01</leafValues></_>
        <_>
          <internalNodes>
            0 -1 83 4.8031453043222427e-03</internalNodes>
          <leafValues>
            7.9868271946907043e-02 -3.3852887153625488e-01</leafValues></_>
        <_>
          <internalNodes>
            0 -1 359 4.1551198810338974e-03</internalNodes>
          <leafValues>
            -6.8072579801082611e-02 3.9657860994338989e-01</leafValues></_>
        <_>
          <internalNodes>
            0 -1 539 1.5071232337504625e-03</internalNodes>
          <leafValues>
            6.4867883920669556e-02 -3.8696911931037903e-01</leafValues></_>
        <_>
          <internalNodes>
            0 -1 123 -3.1783601734787226e-03</internalNodes>
          <leafValues>
            2.9426220059394836e-01 -8.7289743125438690e-02</leafValues></_>
        <_>
          <internalNodes>
            0 -1 568 1.3028938155912329e-05</internalNodes>
          <leafValues>
            -1.6557385027408600e-01 1.4608082175254822e-01</leafValues></_>
        <_>
          <internalNodes>
            0 -1 621 1.1309351772069931e-02</internalNodes>
          <leafValues>
            -8.3399541676044464e-02 3.2659304141998291e-01</leafValues></_>
        <_>
          <internalNodes>
            0 -1 472 1.5002669533714652e-04</internalNodes>
          <leafValues>
            9.7670629620552063e-02 -2.5811290740966797e-01</leafValues></_>
        <_>
          <internalNodes>
            0 -1 581 -1.3773235492408276e-02</internalNodes>
          <leafValues>
            4.4074353575706482e-01 -6.3071273267269135e-02</leafValues></_>
        <_>
          <internalNodes>
            0 -1 395 -9.2605605721473694e-02</internalNodes>
          <leafValues>
            -6.9608187675476074e-01 3.5753261297941208e-02</leafValues></_>
        <_>
          <internalNodes>
            0 -1 467 2.0445731934159994e-04</internalNodes>
          <leafValues>
            9.5016360282897949e-02 -2.5916388630867004e-01</leafValues></_>
        <_>
          <internalNodes>
            0 -1 468 -1.4254992493079044e-05</internalNodes>
          <leafValues>
            1.8092168867588043e-01 -1.4557905495166779e-01</leafValues></_>
        <_>
          <internalNodes>
            0 -1 217 5.7077789679169655e-03</internalNodes>
          <leafValues>
            -1.2730157375335693e-01 2.3053807020187378e-01</leafValues></_>
        <_>
          <internalNodes>
            0 -1 424 -1.4708474278450012e-02</internalNodes>
          <leafValues>
            5.6625097990036011e-01 -4.7847274690866470e-02</leafValues></_>
        <_>
          <internalNodes>
            0 -1 54 -2.9592764377593994e-01</internalNodes>
          <leafValues>
            3.2224977016448975e-01 -8.9359536767005920e-02</leafValues></_>
        <_>
          <internalNodes>
            0 -1 522 -1.4682405162602663e-04</internalNodes>
          <leafValues>
            -2.7542912960052490e-01 9.9550940096378326e-02</leafValues></_>
        <_>
          <internalNodes>
            0 -1 372 1.1597799602895975e-03</internalNodes>
          <leafValues>
            -7.2381854057312012e-02 3.7388938665390015e-01</leafValues></_>
        <_>
          <internalNodes>
            0 -1 404 2.4156950530596077e-04</internalNodes>
          <leafValues>
            9.0225696563720703e-02 -3.1523409485816956e-01</leafValues></_>
        <_>
          <internalNodes>
            0 -1 160 -9.5264203846454620e-03</internalNodes>
          <leafValues>
            2.3924736678600311e-01 -9.4365991652011871e-02</leafValues></_>
        <_>
          <internalNodes>
            0 -1 287 -1.7209062352776527e-03</internalNodes>
          <leafValues>
            2.6995655894279480e-01 -8.9751720428466797e-02</leafValues></_>
        <_>
          <internalNodes>
            0 -1 670 2.1085157990455627e-02</internalNodes>
          <leafValues>
            5.9316664934158325e-02 -3.8130471110343933e-01</leafValues></_>
        <_>
          <internalNodes>
            0 -1 518 -1.1062579229474068e-02</internalNodes>
          <leafValues>
            2.3392198979854584e-01 -9.7779318690299988e-02</leafValues></_>
        <_>
          <internalNodes>
            0 -1 542 -1.4817534014582634e-02</internalNodes>
          <leafValues>
            3.3436319231987000e-01 -6.7572854459285736e-02</leafValues></_>
        <_>
          <internalNodes>
            0 -1 175 1.1869490146636963e-02</internalNodes>
          <leafValues>
            6.0304403305053711e-02 -3.9261528849601746e-01</leafValues></_>
        <_>
          <internalNodes>
            0 -1 595 -1.3265244662761688e-02</internalNodes>
          <leafValues>
            -3.8447204232215881e-01 6.1530582606792450e-02</leafValues></_>
        <_>
          <internalNodes>
            0 -1 606 2.0946082659065723e-03</internalNodes>
          <leafValues>
            -7.9647332429885864e-02 3.0552259087562561e-01</leafValues></_>
        <_>
          <internalNodes>
            0 -1 576 1.3868434354662895e-02</internalNodes>
          <leafValues>
            4.6417385339736938e-02 -5.3283435106277466e-01</leafValues></_>
        <_>
          <internalNodes>
            0 -1 637 -1.8283981829881668e-02</internalNodes>
          <leafValues>
            4.6405819058418274e-01 -5.7236880064010620e-02</leafValues></_>
        <_>
          <internalNodes>
            0 -1 585 1.9492241553962231e-03</internalNodes>
          <leafValues>
            -9.0571887791156769e-02 2.6021042466163635e-01</leafValues></_>
        <_>
          <internalNodes>
            0 -1 506 3.0873122159391642e-04</internalNodes>
          <leafValues>
            -1.2659293413162231e-01 1.8124069273471832e-01</leafValues></_>
        <_>
          <internalNodes>
            0 -1 485 1.2330755998846143e-04</internalNodes>
          <leafValues>
            9.8458163440227509e-02 -2.4123044312000275e-01</leafValues></_>
        <_>
          <internalNodes>
            0 -1 140 -9.3410238623619080e-02</internalNodes>
          <leafValues>
            5.8521789312362671e-01 -4.4738747179508209e-02</leafValues></_>
        <_>
          <internalNodes>
            0 -1 243 -3.6771476268768311e-02</internalNodes>
          <leafValues>
            5.0767272710800171e-01 -4.0013615041971207e-02</leafValues></_>
        <_>
          <internalNodes>
            0 -1 366 1.3858946040272713e-02</internalNodes>
          <leafValues>
            -9.9069908261299133e-02 2.4773345887660980e-01</leafValues></_>
        <_>
          <internalNodes>
            0 -1 431 -8.9839851716533303e-04</internalNodes>
          <leafValues>
            -3.3589255809783936e-01 7.1670398116111755e-02</leafValues></_>
        <_>
          <internalNodes>
            0 -1 82 -1.5082950890064240e-01</internalNodes>
          <leafValues>
            -5.0698643922805786e-01 4.2726621031761169e-02</leafValues></_></weakClassifiers></_>
    <!-- stage 9 -->
    <_>
      <maxWeakCount>59</maxWeakCount>
      <stageThreshold>-1.3942855596542358e+00</stageThreshold>
      <weakClassifiers>
        <_>
          <internalNodes>
            0 -1 294 -7.7011901885271072e-03</internalNodes>
          <leafValues>
            2.0433436334133148e-01 -4.3574908375740051e-01</leafValues></_>
        <_>
          <internalNodes>
            0 -1 660 -1.0979552753269672e-03</internalNodes>
          <leafValues>
            2.1672317385673523e-01 -2.7177354693412781e-01</leafValues></_>
        <_>
          <internalNodes>
            0 -1 311 3.2050581648945808e-03</internalNodes>
          <leafValues>
            -2.0073147118091583e-01 2.4667012691497803e-01</leafValues></_>
        <_>
          <internalNodes>
            0 -1 14 -5.6753411889076233e-02</internalNodes>
          <leafValues>
            2.4140806496143341e-01 -1.8364995718002319e-01</leafValues></_>
        <_>
          <internalNodes>
            0 -1 429 -6.4695831388235092e-03</internalNodes>
          <leafValues>
            2.5757661461830139e-01 -1.8521974980831146e-01</leafValues></_>
        <_>
          <internalNodes>
            0 -1 587 9.5094763673841953e-04</internalNodes>
          <leafValues>
            -2.5043079257011414e-01 1.5897697210311890e-01</leafValues></_>
        <_>
          <internalNodes>
            0 -1 52 -1.3791523873806000e-01</internalNodes>
          <leafValues>
            3.0917564034461975e-01 -1.2850837409496307e-01</leafValues></_>
        <_>
          <internalNodes>
            0 -1 57 2.8182178735733032e-02</internalNodes>
          <leafValues>
            -9.1340318322181702e-02 4.9991118907928467e-01</leafValues></_>
        <_>
          <internalNodes>
            0 -1 615 -2.5512576103210449e-02</internalNodes>
          <leafValues>
            4.5021802186965942e-01 -7.4158824980258942e-02</leafValues></_>
        <_>
          <internalNodes>
            0 -1 413 2.0318948663771152e-03</internalNodes>
          <leafValues>
            -1.1105307936668396e-01 3.0648219585418701e-01</leafValues></_>
        <_>
          <internalNodes>
            0 -1 196 -1.7248265445232391e-02</internalNodes>
          <leafValues>
            2.5291317701339722e-01 -1.0894999653100967e-01</leafValues></_>
        <_>
          <internalNodes>
            0 -1 111 -4.7896657139062881e-02</internalNodes>
          <leafValues>
            -4.8325222730636597e-01 7.1282327175140381e-02</leafValues></_>
        <_>
          <internalNodes>
            0 -1 491 -3.3169746398925781e-02</internalNodes>
          <leafValues>
            2.0312842726707458e-01 -1.4734567701816559e-01</leafValues></_>
        <_>
          <internalNodes>
            0 -1 428 1.2343365699052811e-02</internalNodes>
          <leafValues>
            7.9077653586864471e-02 -4.9538651108741760e-01</leafValues></_>
        <_>
          <internalNodes>
            0 -1 167 1.3167878612875938e-02</internalNodes>
          <leafValues>
            -1.0093598812818527e-01 3.5661390423774719e-01</leafValues></_>
        <_>
          <internalNodes>
            0 -1 169 -3.2312120310962200e-03</internalNodes>
          <leafValues>
            3.2156741619110107e-01 -9.2047989368438721e-02</leafValues></_>
        <_>
          <internalNodes>
            0 -1 107 -5.4547827690839767e-02</internalNodes>
          <leafValues>
            2.2207258641719818e-01 -1.2549729645252228e-01</leafValues></_>
        <_>
          <internalNodes>
            0 -1 416 8.9592847507447004e-04</internalNodes>
          <leafValues>
            -1.4123006165027618e-01 1.9372901320457458e-01</leafValues></_>
        <_>
          <internalNodes>
            0 -1 543 2.5972485309466720e-04</internalNodes>
          <leafValues>
            7.4226252734661102e-02 -3.1780049204826355e-01</leafValues></_>
        <_>
          <internalNodes>
            0 -1 324 -3.8344606757164001e-02</internalNodes>
          <leafValues>
            -4.7333541512489319e-01 5.2556969225406647e-02</leafValues></_>
        <_>
          <internalNodes>
            0 -1 505 -1.4191667549312115e-02</internalNodes>
          <leafValues>
            4.3871387839317322e-01 -6.3693545758724213e-02</leafValues></_>
        <_>
          <internalNodes>
            0 -1 452 -6.2778079882264137e-03</internalNodes>
          <leafValues>
            5.1045519113540649e-01 -5.0522811710834503e-02</leafValues></_>
        <_>
          <internalNodes>
            0 -1 513 2.4116801796481013e-04</internalNodes>
          <leafValues>
            9.1672539710998535e-02 -2.9728603363037109e-01</leafValues></_>
        <_>
          <internalNodes>
            0 -1 540 6.2216294463723898e-04</internalNodes>
          <leafValues>
            -1.1461190134286880e-01 2.5883978605270386e-01</leafValues></_>
        <_>
          <internalNodes>
            0 -1 318 1.4193885028362274e-02</internalNodes>
          <leafValues>
            1.1268265545368195e-01 -2.3024520277976990e-01</leafValues></_>
        <_>
          <internalNodes>
            0 -1 226 -2.0041469484567642e-02</internalNodes>
          <leafValues>
            -3.9003068208694458e-01 6.6171392798423767e-02</leafValues></_>
        <_>
          <internalNodes>
            0 -1 63 5.4939212277531624e-03</internalNodes>
          <leafValues>
            -1.2550447881221771e-01 1.8006354570388794e-01</leafValues></_>
        <_>
          <internalNodes>
            0 -1 128 4.1731121018528938e-03</internalNodes>
          <leafValues>
            4.5617502182722092e-02 -6.5085065364837646e-01</leafValues></_>
        <_>
          <internalNodes>
            0 -1 222 1.1934310197830200e-02</internalNodes>
          <leafValues>
            1.6265427693724632e-02 -8.2787072658538818e-01</leafValues></_>
        <_>
          <internalNodes>
            0 -1 521 -1.3973791152238846e-02</internalNodes>
          <leafValues>
            2.6954510807991028e-01 -8.4460258483886719e-02</leafValues></_>
        <_>
          <internalNodes>
            0 -1 419 -6.5853163599967957e-02</internalNodes>
          <leafValues>
            -6.5848821401596069e-01 3.8550112396478653e-02</leafValues></_>
        <_>
          <internalNodes>
            0 -1 227 2.3315190337598324e-03</internalNodes>
          <leafValues>
            8.7611258029937744e-02 -2.5110802054405212e-01</leafValues></_>
        <_>
          <internalNodes>
            0 -1 337 8.2722678780555725e-03</internalNodes>
          <leafValues>
            -7.7703282237052917e-02 3.5217982530593872e-01</leafValues></_>
        <_>
          <internalNodes>
            0 -1 676 2.2621452808380127e-03</internalNodes>
          <leafValues>
            7.3614679276943207e-02 -3.2939359545707703e-01</leafValues></_>
        <_>
          <internalNodes>
            0 -1 145 1.6541074961423874e-02</internalNodes>
          <leafValues>
            -1.3351714611053467e-01 1.6449198126792908e-01</leafValues></_>
        <_>
          <internalNodes>
            0 -1 122 -9.3571990728378296e-03</internalNodes>
          <leafValues>
            1.9964078068733215e-01 -1.1781240254640579e-01</leafValues></_>
        <_>
          <internalNodes>
            0 -1 90 -3.0540136620402336e-02</internalNodes>
          <leafValues>
            2.2118070721626282e-01 -1.0173172503709793e-01</leafValues></_>
        <_>
          <internalNodes>
            0 -1 99 3.5835327580571175e-03</internalNodes>
          <leafValues>
            5.2916027605533600e-02 -5.0920790433883667e-01</leafValues></_>
        <_>
          <internalNodes>
            0 -1 97 -1.7266373615711927e-03</internalNodes>
          <leafValues>
            3.1440889835357666e-01 -7.5566157698631287e-02</leafValues></_>
        <_>
          <internalNodes>
            0 -1 102 -6.3767179846763611e-02</internalNodes>
          <leafValues>
            -5.6196928024291992e-01 3.9508312940597534e-02</leafValues></_>
        <_>
          <internalNodes>
            0 -1 61 7.5467184185981750e-02</internalNodes>
          <leafValues>
            5.4432399570941925e-02 -3.4488341212272644e-01</leafValues></_>
        <_>
          <internalNodes>
            0 -1 599 1.2351086297712754e-05</internalNodes>
          <leafValues>
            -1.5504795312881470e-01 1.3480563461780548e-01</leafValues></_>
        <_>
          <internalNodes>
            0 -1 512 7.3814401403069496e-03</internalNodes>
          <leafValues>
            -1.0399477928876877e-01 2.3538753390312195e-01</leafValues></_>
        <_>
          <internalNodes>
            0 -1 161 1.5544883906841278e-02</internalNodes>
          <leafValues>
            -7.5198009610176086e-02 2.9619508981704712e-01</leafValues></_>
        <_>
          <internalNodes>
            0 -1 177 8.9240018278360367e-03</internalNodes>
          <leafValues>
            3.6620572209358215e-02 -6.3403636217117310e-01</leafValues></_>
        <_>
          <internalNodes>
            0 -1 231 -7.2689824737608433e-03</internalNodes>
          <leafValues>
            2.8034085035324097e-01 -8.2332618534564972e-02</leafValues></_>
        <_>
          <internalNodes>
            0 -1 612 -9.7948219627141953e-03</internalNodes>
          <leafValues>
            2.3355850577354431e-01 -9.7791314125061035e-02</leafValues></_>
        <_>
          <internalNodes>
            0 -1 644 -3.0192676931619644e-03</internalNodes>
          <leafValues>
            -4.5922017097473145e-01 4.8802357167005539e-02</leafValues></_>
        <_>
          <internalNodes>
            0 -1 91 -1.1387515813112259e-02</internalNodes>
          <leafValues>
            2.4607287347316742e-01 -8.5034556686878204e-02</leafValues></_>
        <_>
          <internalNodes>
            0 -1 351 1.6464337240904570e-03</internalNodes>
          <leafValues>
            -1.3080213963985443e-01 1.7665600776672363e-01</leafValues></_>
        <_>
          <internalNodes>
            0 -1 313 -1.2154593132436275e-03</internalNodes>
          <leafValues>
            -2.3239055275917053e-01 1.0079852491617203e-01</leafValues></_>
        <_>
          <internalNodes>
            0 -1 405 -1.5594759583473206e-01</internalNodes>
          <leafValues>
            -6.4143532514572144e-01 2.8889702633023262e-02</leafValues></_>
        <_>
          <internalNodes>
            0 -1 562 -9.0793780982494354e-03</internalNodes>
          <leafValues>
            -5.5032521486282349e-01 3.3334445208311081e-02</leafValues></_>
        <_>
          <internalNodes>
            0 -1 399 -2.0283734798431396e-01</internalNodes>
          <leafValues>
            -7.3809951543807983e-01 2.2846922278404236e-02</leafValues></_>
        <_>
          <internalNodes>
            0 -1 409 -2.7478383854031563e-03</internalNodes>
          <leafValues>
            -4.2354726791381836e-01 4.0304377675056458e-02</leafValues></_>
        <_>
          <internalNodes>
            0 -1 672 -1.1715744622051716e-03</internalNodes>
          <leafValues>
            2.2028808295726776e-01 -9.3856409192085266e-02</leafValues></_>
        <_>
          <internalNodes>
            0 -1 662 5.4981810972094536e-03</internalNodes>
          <leafValues>
            -6.2323085963726044e-02 3.6552411317825317e-01</leafValues></_>
        <_>
          <internalNodes>
            0 -1 159 1.4432716369628906e-01</internalNodes>
          <leafValues>
            3.2935116440057755e-02 -6.6871410608291626e-01</leafValues></_>
        <_>
          <internalNodes>
            0 -1 536 -3.5769338719546795e-03</internalNodes>
          <leafValues>
            3.5125651955604553e-01 -6.6071934998035431e-02</leafValues></_></weakClassifiers></_>
    <!-- stage 10 -->
    <_>
      <maxWeakCount>38</maxWeakCount>
      <stageThreshold>-1.5873442888259888e+00</stageThreshold>
      <weakClassifiers>
        <_>
          <internalNodes>
            0 -1 625 -1.2815165333449841e-02</internalNodes>
          <leafValues>
            3.1258106231689453e-01 -3.9078155159950256e-01</leafValues></_>
        <_>
          <internalNodes>
            0 -1 272 2.9625470051541924e-04</internalNodes>
          <leafValues>
            1.5917474031448364e-01 -5.2747213840484619e-01</leafValues></_>
        <_>
          <internalNodes>
            0 -1 272 -2.9113519121892750e-04</internalNodes>
          <leafValues>
            -4.8952731490135193e-01 1.8613313138484955e-01</leafValues></_>
        <_>
          <internalNodes>
            0 -1 45 -1.7282702028751373e-02</internalNodes>
          <leafValues>
            3.3851751685142517e-01 -1.9345237314701080e-01</leafValues></_>
        <_>
          <internalNodes>
            0 -1 168 -1.9294472876936197e-03</internalNodes>
          <leafValues>
            -5.6220817565917969e-01 8.7453365325927734e-02</leafValues></_>
        <_>
          <internalNodes>
            0 -1 168 1.1710681719705462e-03</internalNodes>
          <leafValues>
            1.6718861460685730e-01 -5.1582050323486328e-01</leafValues></_>
        <_>
          <internalNodes>
            0 -1 577 2.1275259496178478e-04</internalNodes>
          <leafValues>
            1.6463057696819305e-01 -3.5053095221519470e-01</leafValues></_>
        <_>
          <internalNodes>
            0 -1 577 -2.4824321735650301e-04</internalNodes>
          <leafValues>
            -3.5875037312507629e-01 1.1716940253973007e-01</leafValues></_>
        <_>
          <internalNodes>
            0 -1 667 5.1640391349792480e-02</internalNodes>
          <leafValues>
            -1.0051278769969940e-01 4.7605770826339722e-01</leafValues></_>
        <_>
          <internalNodes>
            0 -1 444 1.2962175242137164e-04</internalNodes>
          <leafValues>
            1.6113375127315521e-01 -2.7541634440422058e-01</leafValues></_>
        <_>
          <internalNodes>
            0 -1 214 -1.0114767588675022e-02</internalNodes>
          <leafValues>
            2.4956953525543213e-01 -1.9207100570201874e-01</leafValues></_>
        <_>
          <internalNodes>
            0 -1 426 -4.2315004393458366e-03</internalNodes>
          <leafValues>
            3.1172674894332886e-01 -1.1520446836948395e-01</leafValues></_>
        <_>
          <internalNodes>
            0 -1 475 -1.4755243319086730e-04</internalNodes>
          <leafValues>
            -3.2951870560646057e-01 1.0754647850990295e-01</leafValues></_>
        <_>
          <internalNodes>
            0 -1 448 -2.1337643265724182e-03</internalNodes>
          <leafValues>
            -3.8125941157341003e-01 9.7958751022815704e-02</leafValues></_>
        <_>
          <internalNodes>
            0 -1 28 2.2302867728285491e-04</internalNodes>
          <leafValues>
            1.3024576008319855e-01 -2.7856636047363281e-01</leafValues></_>
        <_>
          <internalNodes>
            0 -1 635 7.8139342367649078e-03</internalNodes>
          <leafValues>
            5.2271015942096710e-02 -6.2897014617919922e-01</leafValues></_>
        <_>
          <internalNodes>
            0 -1 464 7.6982723549008369e-03</internalNodes>
          <leafValues>
            -9.0778023004531860e-02 4.0078046917915344e-01</leafValues></_>
        <_>
          <internalNodes>
            0 -1 480 -2.3913595941849053e-04</internalNodes>
          <leafValues>
            -2.9612976312637329e-01 1.0979942232370377e-01</leafValues></_>
        <_>
          <internalNodes>
            0 -1 508 -1.3336844858713448e-04</internalNodes>
          <leafValues>
            -2.7159714698791504e-01 1.1515908688306808e-01</leafValues></_>
        <_>
          <internalNodes>
            0 -1 65 2.1485365927219391e-02</internalNodes>
          <leafValues>
            -8.3140119910240173e-02 3.9912050962448120e-01</leafValues></_>
        <_>
          <internalNodes>
            0 -1 675 2.6138531393371522e-04</internalNodes>
          <leafValues>
            1.1408905684947968e-01 -2.8412091732025146e-01</leafValues></_>
        <_>
          <internalNodes>
            0 -1 127 9.4170989468693733e-03</internalNodes>
          <leafValues>
            -7.9799622297286987e-02 3.8356569409370422e-01</leafValues></_>
        <_>
          <internalNodes>
            0 -1 677 2.6119357789866626e-04</internalNodes>
          <leafValues>
            9.5607414841651917e-02 -3.0399692058563232e-01</leafValues></_>
        <_>
          <internalNodes>
            0 -1 254 2.0501306280493736e-03</internalNodes>
          <leafValues>
            -1.2642948329448700e-01 2.2432479262351990e-01</leafValues></_>
        <_>
          <internalNodes>
            0 -1 4 2.2636279463768005e-03</internalNodes>
          <leafValues>
            7.8427501022815704e-02 -3.4327384829521179e-01</leafValues></_>
        <_>
          <internalNodes>
            0 -1 34 -8.9195054024457932e-03</internalNodes>
          <leafValues>
            3.5240718722343445e-01 -8.2056686282157898e-02</leafValues></_>
        <_>
          <internalNodes>
            0 -1 101 4.1657262481749058e-03</internalNodes>
          <leafValues>
            4.8025179654359818e-02 -5.7054626941680908e-01</leafValues></_>
        <_>
          <internalNodes>
            0 -1 246 4.7793813049793243e-02</internalNodes>
          <leafValues>
            5.7657737284898758e-02 -4.0868565440177917e-01</leafValues></_>
        <_>
          <internalNodes>
            0 -1 144 9.1768652200698853e-02</internalNodes>
          <leafValues>
            5.0085596740245819e-02 -5.1685959100723267e-01</leafValues></_>
        <_>
          <internalNodes>
            0 -1 666 4.9215566832572222e-04</internalNodes>
          <leafValues>
            7.3238551616668701e-02 -3.3083724975585938e-01</leafValues></_>
        <_>
          <internalNodes>
            0 -1 637 9.3761663883924484e-03</internalNodes>
          <leafValues>
            -9.7266189754009247e-02 2.7684372663497925e-01</leafValues></_>
        <_>
          <internalNodes>
            0 -1 450 -1.3479316607117653e-02</internalNodes>
          <leafValues>
            2.9530370235443115e-01 -9.1834418475627899e-02</leafValues></_>
        <_>
          <internalNodes>
            0 -1 378 -2.4651375133544207e-04</internalNodes>
          <leafValues>
            -2.6524153351783752e-01 9.8026849329471588e-02</leafValues></_>
        <_>
          <internalNodes>
            0 -1 255 -4.2983246967196465e-03</internalNodes>
          <leafValues>
            2.4885065853595734e-01 -9.8252072930335999e-02</leafValues></_>
        <_>
          <internalNodes>
            0 -1 457 -2.4613093119114637e-03</internalNodes>
          <leafValues>
            1.9136548042297363e-01 -1.4797319471836090e-01</leafValues></_>
        <_>
          <internalNodes>
            0 -1 263 9.2464615590870380e-04</internalNodes>
          <leafValues>
            -1.5027113258838654e-01 1.9359241425991058e-01</leafValues></_>
        <_>
          <internalNodes>
            0 -1 27 -4.2371399700641632e-02</internalNodes>
          <leafValues>
            2.1890544891357422e-01 -1.2927143275737762e-01</leafValues></_>
        <_>
          <internalNodes>
            0 -1 280 1.3714412925764918e-03</internalNodes>
          <leafValues>
            1.0689926147460938e-01 -2.4496243894100189e-01</leafValues></_></weakClassifiers></_>
    <!-- stage 11 -->
    <_>
      <maxWeakCount>43</maxWeakCount>
      <stageThreshold>-1.4927093982696533e+00</stageThreshold>
      <weakClassifiers>
        <_>
          <internalNodes>
            0 -1 555 -1.8049895763397217e-02</internalNodes>
          <leafValues>
            2.5021719932556152e-01 -3.7059766054153442e-01</leafValues></_>
        <_>
          <internalNodes>
            0 -1 513 3.8701284211128950e-04</internalNodes>
          <leafValues>
            1.1424056440591812e-01 -5.7531070709228516e-01</leafValues></_>
        <_>
          <internalNodes>
            0 -1 513 -2.1111527166794986e-04</internalNodes>
          <leafValues>
            -5.2124029397964478e-01 1.9656519591808319e-01</leafValues></_>
        <_>
          <internalNodes>
            0 -1 163 1.0743070160970092e-03</internalNodes>
          <leafValues>
            1.1265654861927032e-01 -4.6356424689292908e-01</leafValues></_>
        <_>
          <internalNodes>
            0 -1 164 -2.4872478097677231e-03</internalNodes>
          <leafValues>
            -5.8538955450057983e-01 1.5553306043148041e-01</leafValues></_>
        <_>
          <internalNodes>
            0 -1 125 2.7038395404815674e-02</internalNodes>
          <leafValues>
            -1.4324431121349335e-01 4.1380631923675537e-01</leafValues></_>
        <_>
          <internalNodes>
            0 -1 25 -1.1916596442461014e-01</internalNodes>
          <leafValues>
            2.7688854932785034e-01 -1.7554874718189240e-01</leafValues></_>
        <_>
          <internalNodes>
            0 -1 301 -1.9318092614412308e-02</internalNodes>
          <leafValues>
            3.6643373966217041e-01 -9.4808444380760193e-02</leafValues></_>
        <_>
          <internalNodes>
            0 -1 564 -3.1800719443708658e-03</internalNodes>
          <leafValues>
            -5.8947211503982544e-01 4.0318105369806290e-02</leafValues></_>
        <_>
          <internalNodes>
            0 -1 564 1.0744612663984299e-03</internalNodes>
          <leafValues>
            1.1918082088232040e-01 -3.6307561397552490e-01</leafValues></_>
        <_>
          <internalNodes>
            0 -1 33 -4.5545648783445358e-02</internalNodes>
          <leafValues>
            4.5318391919136047e-01 -8.4391809999942780e-02</leafValues></_>
        <_>
          <internalNodes>
            0 -1 661 1.0355741251260042e-03</internalNodes>
          <leafValues>
            9.6983678638935089e-02 -3.7351572513580322e-01</leafValues></_>
        <_>
          <internalNodes>
